Ammy -0.072149 0.038595 0.074574 0.10735 -0.064287 0.0017771 -0.0058863 0.070128 0.077224 -0.02216 -0.064199 -0.022851 -0.039377 0.037275 0.01596 0.19675 -0.015689 -0.024542 0.065742 0.036906 0.029127 -0.01561 -0.021758 -0.086029 -0.090844 -0.0085518 -0.037998 -0.031954 -0.034186 0.05494 0.031785 -0.021097 0.11481 0.048156 -0.11417 0.029714 -0.08931 0.0662 0.030785 -0.046038 0.22493 -0.042657 -0.064255 -0.042832 -0.25706 0.083151 -0.027443 0.020036 -0.012745 0.036787 0.065976 -0.03639 -0.0032723 0.070862 -0.012254 -0.052018 0.065618 -0.0061208 -0.0044606 0.043016 0.047325 0.10639 -0.042631 0.040413 -0.017432 -0.12031 -0.13924 0.024116 -0.068745 0.10639 0.077503 0.041778 0.018306 0.060604 0.0013656 0.028813 -0.010866 -0.032638 -0.14651 0.094835 -0.0038416 0.098896 -0.037567 0.0049143 -0.011445 -0.012527 0.056882 0.011786 -0.014406 -0.10969 -0.13192 -0.025401 -0.019461 -0.012525 0.10775 -0.085304 0.13359 0.037357 -0.027587 -0.048509 -0.083734 0.061162 -0.02913 0.07789 -0.00052194 0.061435 -0.047439 0.062615 -0.064082 -0.010509 -0.12561 -0.088648 0.012149 -0.0015253 0.0051525 -0.028075 -0.021513 0.073828 0.059623 -0.0030389 -0.01412 -0.18458 0.028444 0.068072 -0.12222 -0.10494 -0.034325 -0.0098207 -0.034528 0.014717 0.054652 0.057592 0.031263 -0.0163 0.015511 0.037492 -0.12359 -0.014728 0.0063316 0.030337 0.090424 0.16282 -0.0045207 -0.01239 -0.010111 -0.14043 0.05427 -0.01991 -0.014756 -0.043682 -0.079656 0.065724 0.01697 0.12731 0.043344 0.048682 -0.016314 0.057345 -0.085802 -0.092732 0.0041655 0.040201 0.07555 -0.016354 0.041432 -0.0261 0.13925 -0.026569 0.10428 0.023861 -0.084163 0.037313 0.081289 0.017198 0.038739 0.012225 0.10076 -0.029628 0.032999 0.073695 -0.00014595 -0.058884 0.042901 0.032638 0.068204 0.066129 0.10307 0.05977 0.11271 0.013127 0.028769 0.064721 -0.01667 -0.06674 -0.094697 -0.022506 -0.083772 -0.079954 0.0013425 0.082216 -0.033319 -0.072565 -0.064737 0.041416 0.038777 0.080359 0.034823 -0.2786 0.010143 0.088154 -0.10013 -0.0094325 0.021176 0.034436 -0.041472 0.021385 -0.046641 0.0096156 0.012956 -0.020205 0.14309 -0.040355 -0.029102 0.055801 -0.039313 -0.015571 0.039852 -0.10732 -0.072994 0.14621 0.091241 0.068286 -0.0017199 0.080953 -0.20606 0.0044041 -0.012482 0.074032 -0.1001 -0.014294 0.10834 0.060802 0.002905 0.10209 -0.05365 -0.093081 0.022004 0.015042 0.092572 0.068731 0.090682 -0.050555 -0.13764 0.11126 -0.10284 0.14121 0.034743 0.14098 -0.067641 -0.0049516 -0.048476 0.0057713 -0.18412 -0.039088 0.038136 -0.042978 0.062464 0.1171 0.013566 -0.056268 -0.022011 -0.02187 0.12966 0.032297 -0.075995 0.00070194 -0.016752 0.049076 -0.052116 0.01782 0.050404 -0.082185 0.04029 -0.062255 0.083734 -0.027944 -0.0015788 0.0034768 -0.082618 0.018932 -0.0024849 -0.034992 0.095874 -0.097265 -0.08649 -0.063931 0.096111 -0.0844 0.055583 -0.16397 
Amnesia 0.042705 0.097725 0.077462 -0.018237 0.073852 0.035787 0.030424 0.051246 0.055099 -0.031746 -0.074382 -0.002749 -0.11262 0.0022969 -0.0074448 0.0047013 0.075697 -0.0034767 0.014743 0.0015432 -0.020063 -0.055983 0.038516 0.070895 0.081753 -0.0099043 0.0049065 0.089717 0.081477 -0.087021 0.036292 0.0078834 0.058198 0.028948 0.0026499 -0.038337 -0.0063495 -0.046131 0.044123 0.060091 0.062832 -0.041872 -0.045992 -0.054754 -0.089934 0.026943 -0.0027317 0.020143 -0.12266 0.083686 0.098195 0.011317 -0.0026919 0.053059 0.070643 0.067391 0.00070071 -0.045766 0.026964 -0.10186 -0.016625 0.078318 0.051807 0.0063855 -0.00032735 0.013175 0.049621 0.039753 0.046725 0.019696 0.019883 0.011948 0.085227 -0.090722 0.080867 0.12385 -0.0033406 0.108 0.028357 0.0033157 -0.036884 0.12127 -0.064387 -0.01646 -0.054428 0.033096 0.027033 0.024314 -0.007877 0.01749 -0.012987 0.087277 0.010768 -0.049305 0.027839 0.016127 0.04718 0.071153 0.023429 -0.024128 -0.058874 0.039797 0.029084 0.07622 0.051022 -0.010983 -0.013803 -0.0080127 -0.074814 0.0010894 0.045667 -0.0017972 0.053164 0.055523 -0.019751 0.020753 0.10116 0.018326 -0.0035064 0.021207 -0.029111 -0.056025 -0.08762 -0.047751 -0.039869 0.0081892 0.017799 -0.014219 -0.035818 0.016346 0.014053 0.03965 0.041987 -0.043534 -0.05738 -0.036832 -0.0032205 -0.075022 -0.077654 0.04049 0.037651 0.037185 -0.0002542 -0.030412 -0.068922 -0.012665 0.049533 0.023275 -0.071633 0.0044121 0.024834 -0.017007 0.01748 -0.012842 0.084633 -0.045787 -0.043221 0.032002 0.10457 -0.041399 0.016131 0.067016 0.023957 -0.089661 -0.089239 0.0097091 -0.10411 0.025779 -0.0045313 0.046455 -0.0015782 0.0012794 -0.035121 -0.11293 -0.064558 -0.04737 -0.025936 0.0066433 0.034044 0.12131 -0.016654 0.020241 0.077788 -0.060875 0.10545 -0.036529 0.066156 -0.037899 -0.018854 0.074171 0.037118 -0.0048306 -0.044635 0.0029898 -0.079915 0.085214 0.0064076 -0.010101 0.013962 0.1483 0.0066911 0.059481 -0.0020002 0.089398 -0.080296 0.062103 -0.002461 -0.10186 -0.013564 0.033128 -0.094378 0.032935 0.038814 0.090087 -0.04193 0.031207 -0.058061 -0.00341 0.01307 -0.0070685 0.036948 0.019431 0.055684 -0.096186 -0.040411 -0.070594 0.0090507 0.029703 0.0075348 -0.022336 0.025672 -0.045342 -0.01561 0.014351 -0.091474 0.058244 -0.0040524 -0.05929 0.034273 -0.087087 -0.081883 -0.063007 0.034412 0.0079467 -0.044973 0.092244 0.064272 0.041959 0.064746 -0.10973 -0.009324 0.044326 0.085749 -0.010434 -0.048956 -0.0089375 -0.015475 -0.053534 -0.035734 0.046226 -0.02587 -0.036003 -0.049148 0.015584 -0.068223 0.030476 0.092928 -0.1081 -0.016476 -0.085216 -0.013778 0.035145 -0.0014992 -0.0065119 0.050864 -0.045363 -0.031386 -0.00022715 -0.083089 0.023515 -0.042695 -0.0095979 -0.021865 -0.03798 0.026334 -0.072473 -0.0040044 0.10617 0.02185 -0.053917 0.0537 -0.049755 -0.007094 -0.013571 0.01732 0.10054 -0.070097 -0.041121 0.072104 -0.086571 
Amnistía -0.070456 0.010998 0.011893 -0.01987 0.073564 -0.019725 0.041942 -0.010898 -0.10773 -0.01647 -0.036338 -0.02965 -0.14322 0.021759 -0.025654 -0.0014349 -0.030464 0.060292 -0.00030334 0.038103 0.026579 -0.087492 0.0044409 -0.027232 -0.063577 -0.0088336 -0.0062921 0.0018137 0.075396 0.029231 -0.042409 0.067805 -0.068602 -0.010593 0.069551 -0.051941 0.015122 0.054282 0.050371 -0.0068929 0.060006 -0.05599 -0.028702 0.0014813 0.0034524 -0.0055098 -0.022978 -0.01857 -0.0066956 -0.0091722 0.026462 -0.0047729 -0.020465 -0.031545 0.010406 0.044402 0.05505 -0.052518 0.012608 0.017772 -0.033827 -0.0037949 0.042903 -0.044159 0.019343 -0.098802 0.018175 0.039048 0.031965 -0.022563 0.0099717 0.060897 0.042786 0.009819 0.054673 0.050811 0.022047 0.0028536 -0.050973 -0.0080386 0.020747 -0.05296 0.0015755 -0.01137 -0.05653 -0.022194 0.020548 0.04751 0.11141 0.013902 0.02012 0.051908 -0.018651 -0.03713 -0.084659 -0.058391 0.00035045 -0.070872 -0.015985 -0.050114 -0.014368 0.043272 -0.021549 0.070558 0.044858 -0.018811 0.083942 -0.085551 -0.054223 -0.0014049 0.021576 0.099206 0.079326 0.02401 0.060954 -0.017682 -0.0028865 0.11094 0.025945 0.070694 -0.011458 -0.03551 -0.062109 0.017872 0.018314 0.039855 0.00043471 -0.025908 0.00080839 -0.052292 -0.004359 0.0088692 -0.018635 -0.03703 0.0043518 -0.070282 0.052823 -0.057223 -0.066235 -0.057701 0.0033044 0.012412 -0.047058 -0.0021136 -0.067768 0.0019937 -0.047575 0.013155 -0.032495 0.098598 -0.046457 0.0014606 0.049813 0.063776 0.0019885 -0.010295 -0.020523 -0.0051962 0.0062282 -0.083684 -0.004897 -0.0097775 -0.00038453 -0.067638 -0.011959 0.018443 0.081102 0.032491 -0.010585 -0.066117 -0.053305 0.012805 -0.043939 0.022882 0.015619 0.028745 -0.027628 -0.0019999 0.031109 0.054651 -0.024096 0.015288 -0.0032901 -0.0066474 0.060541 -0.077508 0.0035744 0.026037 -0.042826 -0.012973 -0.037352 0.032802 0.029358 -0.04069 -0.041382 0.05556 -0.022143 -0.022777 0.057661 0.076259 -0.03382 0.027599 -0.025322 0.028211 -0.0020188 0.049874 0.0015567 -0.095665 0.013013 -0.058795 -0.044572 -0.010758 0.0064858 0.019616 0.054408 0.014711 -0.032655 0.0022328 -0.04561 0.023101 0.11419 0.063917 -0.023374 0.034074 0.0086332 0.014097 -0.022768 -0.0021882 -0.028614 0.020088 -0.0057854 0.04637 -0.036554 0.086685 -0.0015848 0.047843 -0.049335 -0.019039 0.0073374 -0.015936 -0.024732 0.033308 -0.080119 -0.059402 -0.040241 0.011559 0.11761 0.043911 0.049232 -0.028345 0.0055527 -0.058217 0.050432 -0.020222 -0.019068 0.0077738 -0.029418 0.062001 0.044845 -0.0049911 -0.044992 0.022473 -0.073803 -0.08909 -0.024205 -0.0028588 -0.0054027 -0.0017647 -0.0036728 0.027428 -0.011102 -0.016684 0.011597 0.03917 0.032384 -0.034538 0.028104 0.045643 -0.031394 0.089909 -0.009997 -0.024503 0.042718 0.010217 0.068961 0.05621 0.006097 0.13334 0.05481 -0.060286 -0.013528 0.003577 -0.060104 -0.012266 -0.084745 0.0046647 0.02 -0.029165 -0.10962 -0.019901 
Amo 0.083476 -0.057788 0.15447 -0.0025765 0.08524 -0.026298 -0.011012 0.0634 -0.04619 0.1201 0.079081 0.066923 -0.021069 0.052126 -0.10414 0.16001 -0.12337 0.13062 0.04214 -0.081603 -0.016775 -0.0126 0.048146 0.16687 -0.016088 -0.0028223 -0.11171 0.13683 0.027475 -0.14347 0.085843 -0.20277 0.12439 0.036991 0.026947 -0.12355 -0.073782 0.12246 -0.092521 0.1316 0.16515 -0.057265 -0.011538 -0.012004 -0.44235 -0.054492 -0.060232 -0.0944 -0.033074 -0.0068153 -0.074724 0.079178 0.096511 -0.063739 -0.061904 -0.011039 0.092438 0.052005 -0.10658 0.048242 0.14236 -0.17068 0.12518 -0.12772 0.14166 -0.090045 0.077058 0.14784 0.056584 0.19659 0.084531 0.10617 0.085481 -0.030287 -0.14097 0.033492 0.063151 0.16249 0.019906 0.14504 -0.12465 0.0040354 0.030587 0.071173 0.050502 0.008074 0.066967 -0.075345 -0.0032548 0.011406 -0.017528 -0.10258 0.065526 -0.05151 0.098512 0.16612 0.039229 0.088212 -0.13517 -0.02952 0.05965 -0.15461 0.14849 0.11294 -0.090822 0.10296 -0.025948 0.20639 0.075563 0.070074 0.24716 0.045011 -0.0010101 -0.060413 0.12782 -0.14453 -0.027014 -0.14939 0.24402 0.034037 0.035282 0.075915 -0.03906 -0.14289 -0.14153 -0.16835 0.018835 -0.0091289 0.080689 -0.13986 -0.044354 0.11476 -0.21144 -0.046578 -0.10738 -0.084426 -0.076836 -0.11244 0.2162 -0.15192 -0.10723 -0.11068 0.047492 -0.062601 -0.024944 -0.0069605 -0.0054792 0.1916 0.038902 -0.047588 0.1521 0.088109 -0.30695 -0.01423 0.079312 0.17245 -0.11959 0.14962 -0.15514 -0.18879 -0.16512 -0.14191 -0.060069 0.027567 0.12346 0.08795 0.10004 -0.11276 -0.078246 -0.056143 -0.073664 0.10683 0.0014084 -0.17914 0.060552 0.16744 0.034886 -0.10953 0.18371 -0.024106 -0.079721 -0.012088 0.15483 0.15326 0.22908 0.18965 0.039337 0.24201 0.0030018 0.064163 0.10456 -0.14038 -0.10024 -0.088969 -0.10922 0.082624 0.086229 0.22758 0.0425 0.080985 -0.13771 0.09912 -0.25915 0.051396 0.087882 0.25793 -0.10077 -0.27164 -0.067287 0.2807 -0.056079 -0.1557 0.17045 0.13525 -0.084523 -0.027978 -0.17112 0.14392 0.02106 -0.043913 0.071078 0.10042 -0.079767 0.019659 0.089658 0.10514 -0.18979 -0.14303 -0.16367 0.068386 -0.010829 0.0311 0.078114 0.11251 -0.30076 0.040703 -0.02983 0.097535 -0.29988 -0.084145 -0.11398 -0.030693 0.13045 -0.16884 -0.34556 0.13517 0.0095214 0.15374 0.10048 -0.16429 0.073687 0.035256 0.17405 0.17123 0.18763 0.074463 -0.14659 -0.0073915 -0.13971 0.057258 0.14805 0.20101 -0.030228 0.02491 0.02372 -0.031573 0.17362 -0.002242 -0.0014658 -0.0022068 0.24664 -0.089208 0.002935 0.045701 0.090714 -0.081605 0.072276 -0.052462 -0.13564 0.20711 -0.096987 0.12977 0.019077 0.032088 -0.16317 -0.069625 -0.045502 -0.099369 0.078254 -0.0029467 -0.11158 0.0062656 -0.056705 -0.062118 0.054967 -0.046622 0.0094425 -0.1809 -0.099004 0.12441 
AmoLoNaturalPeroFresa -0.0090184 0.0064299 0.018537 0.017039 0.010189 -0.04057 0.0064612 -0.00016128 0.01132 -0.017073 0.0099766 -0.017216 0.0054446 -0.0086305 0.014239 -0.012837 -0.0049342 -0.0025929 0.0082005 0.01557 0.017937 -0.0059141 0.020673 -0.013332 0.029088 0.010096 -0.0025418 0.0039707 -0.03491 0.025286 0.012331 -0.010982 0.0074697 0.0050493 -0.016242 -0.020732 0.0041157 -0.010257 0.013721 0.0019857 0.013078 -0.0074391 -0.0019662 0.00028807 -0.0046934 5.0103e-05 0.030107 0.01372 0.01792 0.0052382 0.018751 0.014635 0.020046 0.0085906 0.012302 -0.021846 0.010086 0.0026065 0.01102 -0.0078354 -0.017934 0.0099835 0.0074767 -0.0025516 0.0092207 0.010925 -0.013733 -0.0053215 -0.024311 -0.047373 0.011701 -0.035036 0.010685 0.025234 0.0081055 -0.019087 0.030327 -0.0068263 -0.03323 0.0050543 0.011661 -0.00049414 0.022907 0.007766 -0.023099 -0.00094943 0.017066 0.0047075 0.0010616 0.018475 0.01338 -0.009587 -0.035457 0.0055985 -0.010238 -0.010812 -0.01564 0.011658 -0.0021987 -0.0019473 -0.0053852 0.0027071 0.00097734 -0.0209 -0.013243 -0.041215 0.01802 -0.0090348 0.031427 -0.028619 -0.025162 0.0009448 0.0065289 -0.016767 0.0064593 0.0077031 -0.0059481 -0.0048783 0.017824 -0.0067061 -0.017527 0.011348 -0.045397 -0.016488 -0.0017913 -0.0066057 -0.04535 -0.023053 -0.025868 -0.035089 0.00061546 0.01875 0.01946 -0.024582 -0.023512 0.00037421 0.0013326 0.014046 0.011935 -0.00072826 -0.019549 -0.026664 -0.0026265 0.031163 0.03015 0.002762 -0.022988 0.016118 0.017643 0.027773 -0.048779 0.015268 0.022076 0.013784 -0.0043366 0.051015 0.0080796 -0.005422 0.00053228 0.0048289 0.0035171 -0.010224 0.013387 0.013021 -0.0035047 -0.0052595 0.0096288 0.0068622 0.003551 -0.00052901 0.0094443 0.015682 0.006275 0.053446 -0.022048 -0.0059217 0.0035435 0.01904 0.021725 -0.01327 -0.0034469 -0.018044 -0.0073136 0.0076346 0.0080189 0.0074112 0.017031 -0.0029991 -0.00038111 0.016707 0.016327 -0.015603 -0.033558 -0.01331 0.0069171 0.020973 0.0046454 0.017588 0.011723 0.04706 -0.015261 0.0064289 0.0022474 0.0028462 -0.011908 0.0098136 0.0073225 -0.075547 0.020214 0.0054214 0.051288 -0.0089328 0.024098 -0.0087163 -0.00442 -0.011535 0.0029701 0.030669 -0.0045292 -0.012092 0.00083258 -0.047749 0.04131 -0.013049 -0.017399 -0.022084 0.013352 -0.012185 0.014587 -0.010765 0.002914 -0.01576 -0.030839 -0.001672 0.0078056 -0.0017911 -0.010906 0.0079039 0.035118 0.0031162 -0.0012245 0.0030343 0.03019 -0.0012106 0.0020839 0.016616 0.0040556 0.055844 -0.0037633 -0.0099292 0.0090696 -0.00040497 0.02277 0.010054 -0.014409 0.031049 -0.0099633 0.0033918 -0.013615 -0.023153 0.0029345 -0.011292 0.0086644 -0.015648 -0.022771 -0.019585 0.0081612 0.020933 0.014126 0.0048153 0.018097 -0.0033865 -0.0041768 -0.017827 0.0055333 0.01445 -0.03016 0.0077813 -0.00089269 0.011362 0.018477 -0.016034 -0.0014033 -0.0029395 0.013851 0.012164 -0.046819 -0.0084538 0.024342 -0.021855 0.03122 -0.028983 -0.0060673 0.004017 0.014892 0.019656 -0.0087198 0.024721 0.0090408 -0.011126 
Amooonooos 0.0072231 0.025524 0.030553 0.0019196 -0.0041989 -0.027942 -0.011969 0.015951 0.0090758 -0.023682 0.070727 0.014773 -0.032586 0.0051607 -0.020162 0.050862 -0.024875 0.040423 0.0048873 -0.010832 0.018935 0.027393 -0.0034496 0.0068226 -0.0079707 0.024458 -0.042694 0.0060667 0.0088372 0.0017805 0.016864 0.026054 0.0069857 -0.0015978 -0.016409 -0.0078986 -0.022821 -0.0064477 0.0025831 0.019355 0.01649 0.017876 0.0031959 0.0059455 -0.10644 -0.010871 -0.037942 0.024083 -0.015291 0.01621 -0.017193 0.016389 -0.0092922 0.014338 0.011008 0.0056502 0.023759 -0.020612 0.0048613 -0.0041963 -0.037443 -0.010694 0.0068409 0.0093473 0.029028 -0.03182 -0.012094 0.015297 0.0079421 0.040935 0.0010383 -0.0029615 0.025992 0.0067609 0.0030653 -0.029492 0.017546 -0.034268 -0.044749 0.035829 -0.0045422 0.018428 -0.0029283 -0.0033384 0.0045026 -0.026926 0.031379 -0.015777 -0.021231 0.0063267 -0.033949 -0.0033408 -0.050858 0.0031339 0.00089565 -0.0022508 0.018264 0.022865 0.015571 0.016852 -0.009835 0.045427 0.02744 0.013407 -0.058454 -0.035228 -0.0040433 0.037249 -0.036802 -0.058024 0.01993 0.042521 0.0094081 0.0047408 -0.009332 0.0087457 -0.016296 -0.0048058 0.033175 -0.016303 -0.0065934 -0.009026 -0.012702 0.0013872 -0.019682 -0.015211 -0.020317 -0.010061 0.036943 -0.046086 0.012404 0.020213 -0.010374 0.013904 -0.0049677 -0.020463 0.030117 -0.0040528 0.0063732 -0.0027389 -0.0068467 -0.013088 0.01276 -0.041864 0.0090243 -0.040839 0.01156 -0.02181 0.026451 0.012085 0.0070689 -0.010447 0.0038105 -0.0029144 -0.0057924 0.010606 0.0029816 -0.0036399 -0.018281 -0.019718 0.0054469 -0.064317 0.00049601 0.016156 0.0074382 0.013665 -0.0064685 0.0046634 -0.011838 -0.0044652 -0.017465 0.020249 -0.024621 0.024494 0.010082 0.079039 0.019357 -0.011951 0.032307 0.031314 0.053527 -0.00054406 -0.017067 0.018235 0.01922 -0.0055647 0.028773 0.012972 0.015409 -0.011308 0.018448 -0.012284 -0.025104 0.035174 -0.0016467 0.037354 0.051989 0.0045559 0.0057506 0.028774 -0.010628 0.020982 0.017548 -0.0064236 0.0030667 0.024293 -0.012955 -0.081847 0.010359 0.034965 0.036517 -0.0077849 0.0019406 0.0021023 0.01164 -0.0014816 -0.017714 -0.012704 -0.019527 -0.018313 0.011795 -0.031474 0.050242 -0.0010141 -0.013456 -0.00086403 0.017381 -0.0024815 -0.0090102 -0.029489 0.0085214 -0.010615 -0.0016657 0.0022457 0.026515 -0.014072 0.020979 -0.017945 -0.0025387 0.010103 -0.021649 -0.015462 0.008802 -0.0094238 -0.054092 -0.020486 0.030794 -0.02085 0.037573 -0.03923 0.030057 -0.014731 0.0020392 0.021908 -0.013848 0.10816 -0.01961 -0.004899 -0.018072 0.0098951 -0.00056974 -0.00052652 -0.0010722 -0.03915 -0.028022 0.0034955 0.0055108 0.035986 -0.029593 0.030698 -0.019296 -0.026618 -0.024121 -0.0088288 0.050636 0.02677 -0.028277 -0.010337 -0.018651 -0.0092904 0.035926 -0.011595 -0.003186 -0.0043172 -0.00014819 0.016188 0.03402 0.0068808 0.031997 0.010723 0.057885 -0.025503 -0.044162 -0.019347 -0.0062819 -0.012759 -0.0027383 0.012021 -0.0059772 -0.012597 
Amoooor 0.0043592 0.013121 0.040589 -0.001717 -0.0034896 -0.043014 0.0082665 0.014903 0.0035535 0.0046171 0.036838 -0.010703 -0.031978 0.0015922 -0.010131 0.07149 -0.03885 0.0096045 0.020651 -0.018556 0.018658 0.0051042 0.0070095 0.036706 -0.0074569 0.015753 -0.033391 0.0065856 -0.0056178 -0.015649 0.013397 0.00054629 -0.011506 -0.018509 -0.0031921 -0.0026975 -0.03742 -0.0098484 -0.02342 0.026137 0.0073716 0.017746 -0.016152 0.023177 -0.13365 -0.0063482 -0.073885 -0.0019023 -0.0080924 0.021771 -0.019587 -0.0064839 -0.01734 -0.0053121 0.025067 0.038123 0.05179 -0.025574 0.0030604 -0.015731 -0.033167 -0.0091416 0.010036 0.037325 0.055854 -0.051682 -0.054898 0.016485 0.011928 -0.0027894 -0.0099629 0.012073 0.02508 0.03138 0.015509 -0.029098 0.035608 -0.039664 -0.063968 0.050022 0.0040095 0.0015363 0.028376 -7.6537e-05 0.010052 0.00042079 0.0055334 -0.041384 -0.0063752 0.035015 -0.013733 0.0082559 -0.0028338 0.038877 0.0055969 -0.012096 0.049737 0.00068733 0.0026361 0.017733 0.0044112 0.010145 -0.0010114 0.026758 -0.048668 0.0085894 0.014446 0.061108 -0.019737 -0.036023 0.035624 0.026347 0.0062847 0.04467 0.01078 0.0018015 -0.03479 0.004933 0.057857 -0.031493 -0.02395 -0.038251 -0.023348 -0.012108 -0.017822 -0.0069259 0.023118 -0.027054 0.025901 -0.10329 -0.0046647 0.036518 -0.017095 0.007709 -0.0085291 -0.029657 0.036964 0.0039822 -0.0015842 0.002882 -0.026926 -0.025633 0.025864 -0.042881 -0.020093 -0.055639 0.043681 -3.8691e-05 0.030838 0.0037846 -0.032987 -0.019999 -0.0040329 -0.050245 0.01705 -0.019639 0.015459 -0.01942 -0.031458 -0.057931 0.0082272 -0.0756 0.0025511 0.0092145 0.02781 -0.00063513 -0.025321 0.047699 -0.018758 0.0088282 0.0098554 0.0037582 -0.017018 0.020055 0.02244 0.08604 0.021565 -0.028981 0.0016531 0.0042936 -0.0042646 -0.040084 0.017471 0.041725 0.019035 -0.026843 -0.0032956 0.0068559 0.03414 -0.0083009 0.027433 -0.0041819 -0.039592 0.099036 -0.04065 0.031085 0.052826 -0.0041263 0.027919 0.077466 0.021182 0.031052 -0.0018941 -0.017715 -0.04302 0.061694 -0.026004 -0.037182 0.00024681 0.05932 0.01707 -0.041622 0.044844 0.002219 0.0082524 -0.026182 -0.0099403 0.019931 0.019244 -0.021587 0.033452 -0.016722 0.047919 -0.0020724 -0.014871 0.016948 0.034626 -0.023074 -0.030565 -0.027148 0.0085301 0.04868 0.0017257 -0.00018099 0.011335 0.013732 0.0083419 -0.0027495 -0.028312 -0.0041185 -0.023347 0.015243 0.0022269 -0.010359 -0.10615 0.010525 0.038719 0.038621 0.039982 -0.024939 -0.0036585 -0.020086 -0.014552 0.031673 -0.0091012 0.10466 -0.030656 0.024131 -0.016185 -0.0096437 -0.044034 0.0018294 0.00020346 -0.061364 -0.032692 0.005393 0.0028022 0.020772 -0.03942 0.07641 -0.0022643 -0.034606 0.0070002 0.011502 0.02279 0.027976 -0.0017009 -0.033118 -0.025828 -0.0036099 0.014395 -0.013275 0.027016 -0.014398 -0.0129 -0.010906 0.015513 -0.0041664 0.050341 -0.015511 0.054341 -0.038368 -0.010351 -0.024722 -0.040118 -0.038736 -0.0034921 -0.0051457 0.0083128 -0.025338 
Amor -0.029664 0.047752 0.13726 -0.045431 0.075275 -0.068871 0.061019 -0.15026 -0.0065319 0.10236 0.033658 -0.013669 0.0044856 0.031592 -0.10057 0.166 0.0047856 -0.058509 0.041826 -0.058911 -0.03189 0.037516 -0.016237 0.0030347 0.1013 0.056882 0.017593 0.060669 0.12458 -0.068837 -0.041509 -0.0038762 -0.034099 0.022588 0.069154 0.071893 -0.018483 0.092118 -0.085512 0.046908 0.16859 -0.027923 0.00074791 0.040533 -0.20179 0.090186 -0.091889 0.045011 0.044029 0.074281 0.0064096 0.049076 -0.00017101 -0.061565 0.019124 0.019445 0.085857 -0.06999 -0.0062745 -0.062972 0.007766 -0.044162 -0.047218 0.015209 0.14042 -0.12532 -0.057629 0.11835 -0.096998 -0.052083 -0.065915 0.085996 -0.044627 -0.10185 -0.063409 -0.073748 -0.038598 0.12714 0.051311 -0.03362 0.0053491 0.03495 -0.024444 -0.11798 -0.0032967 0.096988 0.039985 0.011528 0.0015628 0.1491 -0.091441 -0.16341 0.03142 0.013655 -0.026971 -0.0067908 0.12239 -0.0044279 -0.0043901 -0.15194 0.0099582 -0.050221 0.098684 0.045706 0.030137 0.02099 -0.0068221 -0.052105 -0.0015336 0.019422 0.10594 0.0044456 -0.030296 0.095291 0.038604 -0.12135 0.062373 -0.18157 0.099618 0.11485 0.13345 0.10216 0.0032624 -0.11496 -0.007386 0.040246 -0.012177 -0.13371 -0.099559 -0.070371 -0.0029186 0.092337 -0.063612 -0.047969 -0.023384 -0.050688 0.063386 0.11935 0.12646 -0.1082 -0.15735 -0.046159 0.063498 -0.00069131 0.045778 0.02882 -0.09416 0.025571 0.086153 0.070848 -0.073302 -0.228 -0.17414 0.11976 -0.010139 0.030686 -0.098944 0.094529 -0.15404 -0.024196 -0.039533 -0.10212 -0.023089 -0.0099393 -0.022338 0.032755 -0.042038 -0.00098533 0.071451 -0.0063368 -0.037566 0.0634 -0.056623 -0.10128 0.056639 0.094825 -0.0017418 0.063935 0.094075 0.10173 0.065862 -0.0037808 0.18107 -0.042172 0.099624 -0.094977 -0.15387 0.034783 -0.1242 -0.10055 -0.0739 -0.094173 0.0030444 -0.066914 -0.044311 0.15794 0.091991 0.041735 -0.094546 0.17183 -0.058234 0.23653 -0.12072 0.062028 -0.041209 0.0093473 -0.11495 -0.14941 0.012912 0.20793 -0.027953 -0.077656 -0.016755 -0.043259 -0.032775 0.049974 0.038796 0.11698 -0.010276 -0.014441 0.021772 0.0047671 0.025504 0.014757 0.053182 -0.0083502 0.029719 -0.046829 -0.04 0.10741 0.02492 -0.061366 0.022225 -0.034108 -0.045607 -0.023392 -0.19817 -0.03591 -0.035344 -4.0263e-05 -0.12976 -0.0028996 -0.13052 -0.15789 -0.23887 0.14602 0.071035 0.18835 0.18678 -0.1809 -0.061414 -0.077673 0.22706 0.18302 0.050263 -0.07523 -0.0030483 -0.087134 -0.10455 -0.014147 -0.041146 -0.059654 -0.041191 -0.12633 0.029794 0.014972 0.0099221 0.058653 -0.016504 -0.10501 0.12963 0.16803 0.034203 -0.027892 0.25493 -0.042015 0.070877 -0.030978 -0.10287 0.089549 -0.1419 0.084905 0.016616 0.017305 -0.10353 -0.012048 0.041123 -0.1124 0.074067 -0.042374 0.11871 -0.047518 0.051771 -0.0058866 0.087329 -0.025837 0.083087 -0.014203 -0.026752 -0.08927 
AmorYNoMamadas -0.0032798 -0.0028454 0.07537 0.015044 0.021499 -0.011858 0.031349 4.3282e-05 0.0082816 0.01045 0.017638 0.014248 0.010338 0.021264 -0.012365 -0.0095707 0.0035814 0.039313 -0.017165 0.0039056 0.0037768 -0.016006 0.034302 0.0033358 0.014649 0.033403 -0.0253 0.01979 0.039702 -0.023343 -0.01214 -0.0035738 0.014386 0.0043735 0.009524 -0.0063898 -0.019895 0.011175 0.0060518 0.023281 -0.011693 -0.045346 -0.04035 -0.012901 -0.044953 0.022933 -0.013541 0.0019811 0.031992 -0.0030125 0.0052712 0.051768 -0.018322 0.011434 -0.0046715 0.02473 0.01915 -0.0061675 0.0094724 -0.011349 0.0035932 -0.020745 -0.013956 -0.013193 0.0010226 -0.028508 0.01078 0.022705 0.0054808 -0.051083 -0.0052307 0.025885 0.043677 -0.037276 -0.022756 0.00027676 0.023604 0.01389 0.0036676 0.00615 0.013503 0.019396 -0.00080643 -0.010905 0.013341 0.018086 -0.0056821 -0.011245 0.023098 0.0072729 -0.026551 0.010436 -0.011414 0.010391 0.018498 -0.015975 -0.010656 -0.028609 0.010141 -0.027113 -0.00078115 -0.017247 -0.02497 0.0036766 0.0050617 -0.03293 -0.0021693 -0.0027382 -0.013722 0.024104 0.025859 0.0094356 0.0063322 0.024102 0.01246 -0.0025717 0.027911 0.00052577 0.06952 0.0017912 0.022093 0.0016474 -0.025408 -0.0082734 0.0010402 0.0048759 -0.048804 0.004025 -0.015327 -0.010616 0.0079787 0.037634 0.0084561 -0.02687 -0.01143 -0.00070358 0.034922 0.0089447 -0.019942 -0.004096 -0.018682 -0.048598 0.03303 -0.057886 -0.0047597 -0.016551 -0.002768 -0.012938 -0.02159 -0.00085595 0.0014982 0.011472 -0.0093305 -0.028115 0.024799 0.022585 -0.0055156 -0.012356 0.0023325 -0.0060218 0.0049401 0.0051819 0.007508 -0.035287 -0.024308 0.022804 -0.014691 0.0057025 -0.002419 0.020346 0.014592 0.0003823 -0.0026665 -0.017116 -0.02671 0.0167 -0.017058 -0.012301 0.033321 -0.025465 0.026309 0.058476 0.04261 0.0019252 0.020778 -0.026981 -0.029537 -0.032969 -0.0017445 0.0018993 0.011643 0.0014131 -0.01591 0.03968 -0.024423 0.043696 0.021431 -0.0051558 -0.0065494 0.094284 -0.029165 0.035301 -0.011783 0.020725 -0.01298 -0.015206 -0.032615 -0.04252 -0.019006 0.0065195 0.036471 0.0091692 -0.010074 -0.028701 0.019588 0.0028418 -0.011973 -0.0025874 -0.0050926 -0.01978 0.022879 -0.033001 0.0066492 0.0055568 0.010355 -0.00013712 0.0052127 -0.0040118 0.036664 -0.0018363 0.0021976 -0.027473 -0.006786 0.0097464 -0.0041834 0.00014454 -0.043754 0.022061 -0.011631 -0.015676 -0.028514 -0.015971 0.01112 0.0021241 -0.055193 -0.0026869 -0.005374 -0.010937 0.028228 -0.055873 0.025926 -0.033271 0.07622 0.0081983 0.025675 0.073862 0.0069137 -0.016574 -0.016472 -0.022251 0.01276 -0.022876 -0.0066065 -0.029937 -0.0081985 0.0089955 -0.011347 0.018127 -0.0016201 0.042904 -0.015715 -0.00072709 0.011724 -0.012547 0.032992 -0.040384 -0.013913 -0.0095634 -0.0059674 0.015217 0.012644 -0.00059055 0.0091259 0.0056896 -0.001557 -0.0022668 -0.0041153 0.011255 0.014058 0.042932 0.002781 -0.014398 0.038491 0.0044071 0.0011683 0.0026024 0.016839 0.016721 0.012614 0.012793 
Amorcito -0.0144 0.05183 0.057185 -0.096045 -0.023859 -0.00095224 -0.055966 -0.042646 0.053033 0.0082172 -0.0037822 -0.0050166 -0.048613 -0.13052 -0.043793 0.15138 0.015647 0.032677 -0.020836 0.092109 0.0074696 -0.017271 -0.0069293 0.044481 0.00025647 -0.02026 -0.084424 0.01831 0.0026105 0.05568 -0.026897 0.0050865 -0.047268 -0.026673 -0.033489 -0.032709 0.00072624 0.086634 -0.03113 0.01965 0.019096 0.015629 -0.027726 0.043494 -0.1746 0.027634 -0.026942 -0.05254 0.018965 0.040741 -0.0026116 -0.0056339 0.012497 0.027705 -0.014004 0.053652 -0.013025 -0.042672 -0.027353 -0.038057 0.0051436 -0.12491 -0.027805 -0.0095182 0.01456 -0.065306 0.0042036 0.0099843 0.057247 -0.00087911 0.065261 0.0042934 0.0258 -0.02153 -0.02775 -0.041932 0.048003 -0.054574 -0.01119 -0.06931 0.0099016 0.022278 -0.0081091 -0.0090854 0.073487 0.082565 0.025354 -0.0061957 -0.0082096 -0.065571 -0.11105 -0.088545 -0.020673 0.01477 0.0025484 -0.10155 0.12825 -0.013561 -0.0035848 0.010883 0.013876 0.0027587 -0.021388 0.031276 -0.05657 -0.034014 -0.046271 0.035478 0.046414 0.0068786 0.078075 0.0042533 0.016501 0.041107 0.0058757 0.11444 -0.053109 -0.019062 0.038297 -0.038664 0.042835 0.035373 -0.015904 -0.074789 -0.03469 -0.009678 0.018846 -0.061226 -0.0051404 0.015638 0.058638 0.04527 -0.0079361 0.0072488 -0.044078 -0.012172 0.031389 0.051256 0.066811 -0.051891 -0.11313 -0.0092978 0.013814 0.0075004 0.008912 0.05428 -0.046127 0.012369 0.0053152 0.0063586 -0.010778 0.059689 -0.093014 -0.029323 0.0003686 0.024285 -0.093937 0.030785 0.0072557 -0.0038979 0.019544 -0.053855 0.010285 -0.0080832 0.038347 0.035363 -0.030576 -0.080001 0.059526 0.025604 0.0295 0.0074914 0.02343 -0.0025336 0.0077107 0.046606 0.058571 -0.025904 -0.0002696 0.14585 -0.03954 -0.029634 0.11689 0.025574 -0.001093 -0.048989 -0.031922 -0.040433 -0.02166 -0.090961 -0.061958 0.035403 -0.03065 0.034346 0.00098003 0.074239 -0.027307 -0.0068349 -0.064371 0.051699 -0.045582 0.020633 -0.014931 0.034222 -0.028718 0.032117 -0.043523 -0.13257 -0.047341 0.075125 -0.11978 -0.045162 -0.019132 0.00060196 -0.039401 -0.016295 -0.037296 0.030988 -0.04463 0.0079345 0.097202 -0.013618 -0.0068102 -0.0029808 -0.041891 0.0022891 -0.063147 0.020362 -0.0067097 0.061218 0.04907 -0.0031125 0.00021457 0.013933 0.011087 -0.0079763 -0.11791 0.0020441 -0.010716 0.055428 -0.022974 -0.0033019 0.069826 -0.0043409 -0.10762 0.026508 0.0021151 0.054615 0.083022 -0.13073 0.051865 0.029538 0.08247 0.070388 -0.0037989 -0.0067402 -0.017958 0.031397 0.072657 -0.030773 0.021127 -0.0012403 -0.063216 -0.004326 -0.013589 -0.0097487 -0.065423 0.014181 0.047792 -0.023495 -0.0046815 0.12281 0.068101 0.015451 0.13104 -0.028099 -0.010481 0.062901 0.0011742 0.0040396 -0.0066212 -0.063111 -0.027927 0.013694 -0.070989 -0.071715 0.023861 -0.0579 0.043897 -0.043608 -0.052289 -0.050256 0.038743 0.014692 0.081474 0.028108 -0.058678 -0.01587 -0.0098712 -0.047384 
Amores -0.06514 0.10048 0.081444 -0.073039 0.068726 -0.014941 0.094777 -0.0005195 0.076686 0.0029523 0.030277 0.03955 0.050307 -0.015659 0.016896 0.10974 0.093165 0.03243 -0.061002 -0.042149 -0.02916 -0.022392 -0.012974 0.057973 -0.1023 0.02845 -0.040109 -0.012448 0.13048 -0.10732 -0.057947 0.013193 0.0014116 -0.073926 0.050493 -0.014753 0.033261 0.036256 0.04337 -0.069286 0.059365 -0.062691 -0.049324 0.039736 -0.12088 0.052469 -0.13931 -0.034714 -0.004002 0.076729 -0.054959 0.01249 0.082383 -0.0087708 -0.029458 0.11187 0.006475 -0.034068 0.050743 -0.089435 0.028045 -0.078326 0.079401 0.04613 0.073383 -0.060174 -0.022098 0.022999 -0.011676 0.045993 0.019762 0.08652 -0.049769 -0.1092 0.035073 0.1192 -0.029213 0.20893 0.0049563 -0.0029068 0.036761 0.030565 -0.0095408 -0.015332 0.003011 0.055229 0.026583 0.039457 0.060452 0.011929 -0.042851 -0.052875 -0.028612 0.00041239 -0.017232 -0.11786 0.0081593 0.036031 -0.011399 -0.057517 -0.07995 0.06877 0.026967 -0.0022562 -0.010508 0.032164 0.0044812 0.0045831 -0.00083025 0.043775 0.059492 -0.11125 -0.038279 0.057263 0.054376 -0.079154 -0.0030066 0.041076 0.095447 -0.036381 0.003202 0.035986 -0.069194 -0.019325 -0.023989 0.0064526 0.042888 -0.10396 -0.0085991 -0.020919 -0.070659 0.038058 -0.034986 -0.041581 0.02762 -0.034561 -0.013433 0.023158 0.15594 -0.066316 -0.091712 -0.048172 0.023795 -0.084644 0.084256 0.054554 0.019873 -0.0060854 0.14815 -0.068336 0.0092498 0.016428 -0.11406 0.025611 0.094397 -0.064866 -0.12121 0.037159 -0.036514 0.011504 -0.039154 -0.027551 -0.071388 0.087681 0.033365 0.054342 -0.036394 -0.026365 0.067763 -0.063131 -0.04565 0.054633 -0.026893 -0.13153 -0.043446 0.026736 -0.10406 0.020064 0.058611 0.11235 0.03598 0.039618 0.064396 0.017596 0.0049064 -0.0086423 -0.10077 -0.072866 -0.0073386 -0.048273 -0.068247 -0.024377 -0.023127 0.034272 0.0015516 0.14219 0.076391 0.036083 -0.013354 -0.097459 -0.0081808 0.10949 -0.043301 -0.0075727 0.028658 0.077762 -0.011527 -0.097656 -0.077102 0.081884 -0.08302 -0.057863 0.052249 -0.010807 -0.028763 0.030662 -0.023559 0.17151 -0.12902 0.071248 0.062605 -0.02091 0.031946 0.052365 -0.024995 0.0025353 -0.07622 -0.025465 0.012092 0.008817 -0.033978 -0.022287 0.031734 -0.034376 -0.066533 -0.015935 -0.051682 -0.0094232 0.099073 -0.067908 -0.0067392 0.01021 0.036224 -0.17639 -0.12727 -0.033634 0.013716 -0.075942 0.0049097 -0.11092 -0.0195 -0.0070945 0.16866 0.10399 0.037177 0.013805 -0.033445 -0.046904 -0.023706 -0.060338 0.064634 -0.054183 -0.026974 -0.013391 0.038361 0.062237 -0.03641 -0.0042343 0.014123 -0.0057369 -0.0076756 0.010861 0.091266 -0.0056674 0.10662 -0.057701 0.032639 0.077545 -0.0060858 -0.035234 0.03474 0.21565 -0.035168 -0.11035 -0.080524 -0.08155 0.069548 -0.021717 -0.033788 0.047183 0.046709 -0.098789 -0.13229 -0.09137 0.077364 -0.010958 -0.038428 0.0046659 -0.030327 0.0065658 
Amorfoda 0.022652 0.034749 0.054246 -0.01708 -0.030986 -0.0090513 0.026275 0.0327 -0.004988 0.019696 0.026024 0.014351 0.034626 -0.0058107 5.6805e-05 -0.015271 0.022166 0.027755 -0.0017266 0.0028722 0.017394 -0.022405 0.04294 -0.029501 0.0082563 0.04909 -0.025533 0.011889 0.066563 0.010404 -0.033556 -0.0037072 0.0031799 -0.020363 0.004673 0.02805 0.015421 0.027328 0.016025 0.021467 0.029985 -0.078149 -0.0015697 0.027181 -0.0074428 -0.005776 -0.037083 0.0082533 0.014678 0.010975 -0.0048487 -0.0003049 -0.0082407 -0.011304 -0.019251 -0.0096921 -0.0040397 -0.0108 0.026932 0.033908 0.037933 -0.047128 -0.019091 -0.015951 0.0023841 -0.0014059 -0.028384 0.026748 -0.0068854 -0.073431 0.014609 0.023122 0.02101 -0.0071283 -0.0044138 0.0086341 0.005053 0.020232 -0.0075661 -0.0064587 0.006063 0.028819 0.022652 0.0047147 0.019704 0.011738 -0.0094049 -0.04519 0.057795 -0.0079044 -0.0042771 -0.00021775 0.012038 0.01023 0.023762 -0.025578 0.0011435 0.0029782 0.013973 -0.01829 -0.014112 -0.030376 -0.011192 0.050633 0.0037572 -0.024212 -0.01602 -0.032464 0.0026985 -0.017149 -0.0086268 0.010074 0.014146 0.029045 -0.0094872 -0.011356 0.024663 -0.013127 0.071616 0.0081201 0.030648 0.015328 -0.033456 -0.050538 -0.015372 0.0042404 -0.00099643 -0.0082967 -0.0040791 -0.0075293 0.013333 0.045788 -0.0024091 -0.021847 0.0060248 0.0075408 -0.032175 0.027294 -0.014814 -0.019819 -0.034182 -0.014948 0.0075221 0.010495 0.02037 -0.0065024 -0.020085 -0.012822 0.029578 -0.043743 -0.00019792 -0.0044587 -0.022362 0.017233 0.012187 0.011975 -0.0057967 0.011061 0.0041266 -0.023653 -0.0010073 -0.0080102 0.0046649 -0.018746 -0.0056561 0.012103 -0.022376 0.0027223 0.026094 0.036567 0.0076312 0.025768 0.015454 0.015348 -0.011001 -0.021913 -0.015782 0.003554 -0.0048669 -0.033564 0.034384 0.035355 0.067551 0.016275 0.044359 -0.0037143 -0.036023 -0.006513 -0.025791 0.0012042 0.0046545 0.0038805 0.0055284 0.058629 0.035572 0.073205 0.043552 -0.022666 -0.011854 0.055588 -0.019968 0.041386 -0.055576 -0.01547 0.011454 0.01898 0.0094895 -0.023837 -0.0099849 0.017266 -0.013182 0.012303 0.0062971 0.021502 0.014977 -0.0025841 0.017883 0.023235 -0.040984 -0.022184 -0.011047 -0.026942 0.025904 -0.0078701 -0.034313 0.0078849 0.012064 -0.026012 0.030047 0.0019846 0.034785 -0.013828 -0.027648 -0.032946 -0.0021586 -0.0080021 -0.013009 0.022754 -0.023913 -0.010832 -0.016129 0.0097098 -0.01122 0.0096195 -0.065243 0.012603 -0.013431 0.025276 0.024202 -0.053993 0.0062708 0.0056949 0.11237 0.0059775 0.0014471 0.035725 0.026923 -0.027569 -0.038947 0.0095366 0.03013 0.019299 0.0057886 0.016036 -0.014852 0.0030127 0.0048298 -0.0058697 -0.044953 0.014119 0.034626 0.022766 0.0074955 0.0007242 0.021785 -0.051649 -0.018143 -0.025209 -0.00041674 0.02428 -0.020769 -0.0056565 -0.042238 0.016189 0.0062747 -0.0022659 -0.018139 0.047084 0.0172 0.0094924 -0.0018404 -0.027089 0.022311 0.014852 0.00079076 -0.0084252 0.0094637 -0.01564 0.021628 -0.02123 
Amortiguador -0.0075703 0.0095189 0.032387 0.0008252 -0.016069 -0.031417 -0.013101 0.024165 -0.031086 0.011902 0.010091 0.0014457 0.01713 0.0091541 -0.024561 -0.024093 0.024777 -0.01482 -1.5549e-05 0.044462 0.014663 0.050379 -0.020908 -0.042099 -0.045639 0.063648 -0.0024935 -0.017408 0.024602 0.024402 -0.0078985 -0.021662 -0.03686 -4.6416e-05 -0.0085066 -0.060139 -0.020603 0.048182 0.015603 0.019403 0.051098 -0.027688 0.0057552 0.045608 -0.021561 0.05589 0.020412 0.0074496 0.0023777 -0.0046758 -0.018754 -0.030518 0.012451 -0.01232 -0.021794 0.0093228 0.020629 -0.00036612 -0.014783 0.04061 0.048008 -0.012449 -0.063266 -0.039537 0.004861 0.016605 -0.0079928 -0.033736 0.021533 -0.030617 -0.012916 -0.0006985 0.030424 0.018346 0.023811 0.025662 -0.014651 0.02391 -0.0058242 -0.046237 -0.0038348 -0.01076 -0.0075274 -0.012804 0.023906 -0.0046501 0.031499 0.050176 0.032826 0.0086077 -0.056648 -0.0020333 -0.027624 -0.035637 0.020343 -0.0081624 0.0079973 0.028087 0.018779 0.029293 -0.017565 0.019961 0.012914 0.024588 0.025369 -0.0031239 -0.031801 -0.017196 0.050774 -0.0093108 -0.04028 0.028521 0.0448 0.010309 -0.047044 -0.0013552 0.0108 0.0049083 0.0185 -0.0010197 0.043095 -0.018346 0.014975 -0.039955 0.00023789 0.035432 0.018374 -0.061658 -0.028685 -0.044662 -0.0043231 -0.00034228 0.015403 -0.0022751 -0.047478 -0.03151 0.039232 0.00085988 0.015913 -0.034515 -0.043783 -0.0088301 0.0064305 0.011748 -0.019093 0.037484 0.055072 0.022196 0.010107 0.041103 0.010812 0.009876 0.035179 0.035642 0.073729 0.070029 0.054138 0.042584 0.045718 0.080836 0.023634 0.0038153 -0.0086806 -0.027928 -0.063354 -0.031521 -0.0067692 -0.022205 -0.018001 0.0099149 0.026805 -0.018195 0.010192 0.020352 -0.028313 -0.044356 -0.05276 -0.013048 0.017005 0.00023968 -0.018599 -0.0011298 0.056163 0.026832 0.023583 -0.010265 0.027987 0.0094565 -0.0058797 0.021787 -0.039276 0.0042365 -0.036186 -0.010394 -0.023515 0.015599 -0.0025188 -0.045255 -0.029871 0.017039 -0.020473 0.03453 -0.043913 -0.064216 -0.031613 0.014725 -0.012523 -0.088824 -0.025563 -0.035466 0.0022647 0.052091 -0.008951 0.0071663 0.010535 0.0042145 0.0020395 0.037978 -0.0074612 0.023565 0.020077 -3.5679e-05 0.063112 0.012342 -0.0064547 -0.036704 0.043831 -0.013675 -0.013509 -0.018562 -0.0014476 -0.022123 -0.021425 -0.014467 -0.029676 0.0050001 -0.049072 0.017843 -0.033088 0.0071877 -0.019951 0.026038 0.0045918 0.079666 -0.054172 0.057394 0.021873 0.03225 0.022373 -0.041426 0.076261 0.031175 0.023628 0.0016863 -0.062356 0.025216 0.036679 -0.0016215 0.030475 -0.041169 -0.023172 -0.01903 0.00060558 0.010339 -0.0038333 0.0023344 0.034371 0.019435 -0.0076413 -0.044609 0.015392 0.030835 0.021908 -0.023922 -0.0030301 -0.0099842 -0.073716 -0.0051828 -0.0032559 0.023153 0.032217 0.082385 -0.030276 -0.0088259 0.022257 -0.0051376 0.023919 -0.027197 0.042247 0.048876 -0.017638 -0.034851 0.044796 -0.007862 -0.060476 -0.018518 0.00062035 0.010516 0.020997 0.00086715 
Ampliar -0.01241 -0.041772 0.058266 0.047486 -0.011116 0.023114 0.011832 0.018966 0.011039 0.014313 -0.087924 0.089614 -0.041685 -0.02441 -0.12786 -0.0083462 -0.047237 0.076175 0.030186 -0.0032839 -0.047388 0.053203 0.090464 -0.089726 0.047229 0.026935 -0.084082 0.049947 -0.010068 -0.0063359 -0.053907 -0.076456 0.043569 0.049188 -0.037589 -0.016274 0.016595 -0.086004 -0.00080693 0.025017 0.041364 -0.028804 0.057626 -0.040226 -0.04624 0.040286 -0.00019401 -0.032911 0.0036591 0.023773 0.0060336 -0.010075 0.072138 -0.058279 0.047843 -0.0044853 -0.10287 -0.11779 0.12365 -3.0576e-05 0.011819 -0.048766 0.020934 -0.0090893 -0.021549 0.0019186 0.13286 -0.0098943 -0.0028687 0.017899 0.016177 -0.0082936 -0.017969 0.038297 -0.014196 -0.02761 -0.038822 0.029319 0.035273 0.095703 0.00096728 0.07481 0.04274 0.037937 0.0056302 0.00045771 -0.022317 -0.00083514 0.090589 -0.00343 0.083256 -0.04609 0.087599 0.067482 -0.024449 0.070338 0.040495 -0.022823 -0.061311 -0.033679 -0.025787 -0.047403 -0.1038 0.030823 0.052877 0.078659 0.022284 -0.11028 0.0444 0.068975 0.089254 -0.0082444 -0.0054953 0.032753 -0.073426 -0.10653 0.076849 0.06192 0.10045 0.0076387 -0.016471 0.040943 -0.081216 -0.029879 -0.00069573 0.068939 -0.044927 -0.054104 -0.017804 0.0018105 0.057392 0.11751 -0.0011952 -0.070664 0.030996 0.0097723 0.045653 -0.036976 0.014549 -0.072935 -0.043976 -0.038745 0.040774 0.0085388 0.007849 0.037317 0.079331 0.056419 0.072538 0.046526 -0.021538 -0.091898 -0.062102 -0.010609 0.069526 0.034899 -0.019185 0.036706 0.11092 0.022107 -0.012465 0.00066143 -0.0067316 -0.038385 -0.040097 0.017404 -0.021198 -0.031028 -0.033413 -0.011889 -0.033114 0.0062049 0.0063591 0.029682 -0.0008831 0.0083969 0.031615 0.061703 0.047537 0.0055944 -0.032694 -0.0043192 0.0031884 -0.011209 -0.022837 -0.14237 -0.034022 -0.046427 0.05094 0.075166 0.052261 0.029798 -0.045006 -0.0023754 -0.012828 -0.0090888 0.012459 0.051292 0.086447 0.058249 0.036295 0.0047996 0.016012 -0.039596 0.04185 0.072655 0.044588 -0.1088 0.036037 -0.051307 -0.041061 -0.053794 -0.016977 -0.069592 -0.014665 -0.0976 0.032541 -0.043085 0.066867 -0.0012088 -0.0031302 -0.0189 -0.049389 0.037757 0.046699 0.028487 0.054012 0.087199 -0.067885 -0.060433 -0.050906 0.034348 0.055491 -0.0060729 0.0049806 -0.058677 0.015446 -0.021204 0.026334 -0.014061 -0.042749 -0.025772 0.031626 0.054409 -0.0058877 0.02888 -0.0008747 0.030899 0.053527 -0.10962 0.14033 0.1117 0.077958 -0.0070749 0.048418 0.0048951 0.048909 -0.03158 0.027505 -0.049739 -0.0067481 -0.035273 -0.08496 0.13206 0.013181 0.01512 -0.030004 0.033202 -0.059253 0.0037142 0.029753 -0.015464 -0.11775 0.048114 -0.07796 0.045696 -0.020188 -0.10416 0.021081 -0.039011 -0.015976 0.0093139 -0.070062 -0.092386 -0.065086 0.071365 -0.044001 -0.014811 0.13809 0.011426 0.01674 0.082576 -0.019715 -0.046825 -0.029368 0.082589 0.020003 0.016385 -0.0086424 -0.14641 
Amy 0.015379 0.047403 0.19272 0.020505 0.12536 0.029889 0.1492 0.091441 0.092884 -0.14316 -0.036743 -0.039399 0.12201 -0.024604 -0.074579 0.20583 -0.15556 -0.11876 0.077076 -0.098931 0.10621 0.11187 0.14198 -0.20961 -0.10011 -0.019771 -0.061651 -0.078464 -0.15579 0.10541 0.0010669 0.18109 -0.0091596 -0.1822 -0.05275 -0.087368 -0.20875 0.064543 -0.22751 0.055551 0.409 -0.048099 -0.01581 0.031471 -0.31989 0.0028694 -0.45728 -0.22119 -0.19976 0.013507 -0.037446 0.0014233 -0.026243 0.13025 -0.04361 0.003804 -0.060814 -0.20631 -0.02916 0.06434 0.10328 0.14813 -0.060922 0.068052 0.011453 -0.14385 -0.057971 0.057992 0.077386 -0.052953 -0.069801 0.10703 0.086492 0.010634 0.12669 0.15423 0.039408 -0.090757 -0.17795 0.04831 -0.099051 0.042546 0.11644 -0.10534 -0.041048 0.019613 0.0451 -0.07852 0.20679 -0.060747 -0.13969 -0.036369 0.19235 0.0063443 0.11543 -0.12226 0.03734 -0.23402 0.45148 0.043057 0.11702 -0.081299 -0.097382 -0.015569 -0.10641 -0.049007 0.081729 0.065836 -0.0029169 0.070977 -0.092494 -0.065414 0.1854 0.086418 0.084482 -0.057459 0.16853 -0.12838 0.26108 0.19422 -0.084901 -0.29037 -0.096855 0.019511 0.031959 -0.03558 0.16875 0.078007 0.035076 -0.1255 -0.0141 0.051943 -0.00087431 -0.086735 -0.18385 -0.012562 -0.14463 0.1543 0.12204 0.16456 0.086924 0.28824 0.010213 -0.20649 -0.058029 -0.22648 0.15948 -0.048537 0.17262 -0.083631 -0.037415 0.026021 -0.017624 0.073626 0.22171 -0.028817 0.041385 -0.099666 -0.14048 -0.17736 0.11944 -0.045609 0.089192 -0.040337 0.015742 0.024805 0.28595 0.17956 0.082103 -0.19775 -0.24925 -0.10427 -0.063222 -0.092961 -0.16005 0.10399 0.04424 -0.030409 0.067897 -0.00039093 0.0075143 0.092934 0.050099 0.036063 0.045396 -0.089908 -0.025851 -0.073844 0.20883 -0.021329 0.14406 -0.079677 -0.056282 0.21805 -0.33102 0.1167 -0.19253 0.084354 0.19943 0.64617 -0.076018 -0.039175 -0.011606 -0.046489 -0.079196 0.22342 -0.019545 -0.31409 -0.13742 -0.15778 -0.15151 -0.029686 0.0060717 -0.004864 -0.12376 0.038858 0.065117 0.043494 0.1803 -0.045251 0.2904 0.030078 -0.11939 0.090165 -0.054166 -0.20899 0.031258 -0.09301 0.069893 0.10666 -0.11219 0.24818 0.058965 -0.12771 -0.25345 0.050814 -0.060184 0.17109 0.091623 -0.091823 0.0030768 0.03378 0.058193 0.037642 -0.11166 0.071702 0.11004 -0.0080476 0.2168 -0.18621 0.21513 0.029316 -0.19323 0.22616 0.11982 0.029467 -0.082894 0.11083 0.1753 0.18419 0.017788 -0.10649 -0.067137 -0.22901 0.014702 -0.086572 0.11545 -0.0087897 0.07919 -0.16842 -0.09559 -0.094251 -0.09307 0.073582 0.031091 -0.031673 0.12327 0.18458 -0.096195 -0.10455 0.050417 0.14809 -0.025349 -0.070295 0.066833 -0.16167 0.048589 0.13331 -0.0046938 -0.11042 -0.00098976 -0.22152 0.024883 0.14247 0.041241 0.0009205 0.11872 -0.2364 -0.081529 -0.32584 
Amárrame 0.0064606 0.072586 0.024574 -0.061387 0.0018059 0.01905 -0.025579 -0.022923 -0.0041514 0.055156 -0.022198 -0.006608 0.026123 -0.069334 -0.0068778 0.071437 -0.084799 0.0054213 0.033844 0.030947 0.049312 0.0020432 0.042492 -0.025219 0.0062042 0.051783 -0.011594 0.0080529 0.0065384 0.0099522 0.0039775 -0.0023499 -0.019783 0.045931 0.0059812 0.0035474 -0.021047 0.0037458 -0.031987 -0.015831 0.0030508 -0.011292 0.0010081 0.039116 -0.083799 -0.022003 -0.03466 0.04497 0.055421 0.033486 0.039753 -0.054103 0.0015676 -0.025088 -0.039726 0.041419 0.0074362 0.0025238 -0.0085977 -0.021089 -0.06858 -0.0027842 -0.01994 -0.025559 0.029628 -0.039004 0.086649 0.0076202 0.03469 -0.04597 0.073873 0.0068082 -0.062541 -0.050489 -0.039992 -0.017047 0.014208 0.011988 -0.011107 0.074687 0.064009 0.017939 0.0071171 -0.0051156 0.0095403 0.049432 0.039566 -0.020377 -0.1063 -0.010565 0.036308 0.05038 0.0011067 0.040854 -0.055737 -0.048215 0.045793 0.040403 -0.057644 -0.0088729 0.026276 0.062824 -0.05776 0.022303 -0.021404 0.026581 -0.032282 0.0098102 0.017077 0.062966 0.054098 0.041681 0.049057 0.045917 -0.082252 -0.027724 -0.03362 0.033482 0.074419 -0.082452 -0.010842 -0.051061 -0.050624 -0.043952 -0.0016644 -0.038293 0.012594 -1.303e-05 0.020595 0.016716 -0.0087224 0.0072435 0.01131 -0.0074872 0.0772 0.02642 -0.027708 0.019382 0.037225 -0.036985 -0.10372 -0.011349 -0.042929 0.026042 -0.032494 0.010109 -0.016857 -0.024473 0.06317 -0.020216 -0.071489 0.084305 -0.060487 -0.031126 0.01473 -0.0055376 0.016441 0.020099 -0.075576 -0.024268 -0.02253 0.02923 -0.013085 0.0051022 -0.0051806 -0.023916 0.048951 0.084448 0.073867 -0.030616 -0.015522 0.02829 0.044273 -0.044792 0.0784 0.039165 0.042825 0.00026959 0.016143 0.053285 -0.036047 0.021776 0.01325 -0.016821 -0.040662 -0.05629 0.038226 -0.0063538 -0.077719 -0.031906 -0.055425 0.048827 -0.017199 0.03047 -0.068958 0.011622 0.012129 0.039289 0.0022043 0.011012 0.010678 0.017104 -0.040414 0.052696 -0.045746 0.038539 -0.0096141 -0.1437 -0.019371 0.028797 -0.069051 -0.084391 -0.045951 0.068364 0.018376 0.011446 -0.048908 0.037334 0.054927 -0.0028562 0.094821 -0.063386 -0.036488 0.016941 -0.019179 0.018636 0.0031484 0.055047 -0.030889 -0.0070524 0.1103 -0.039081 -0.036512 0.086994 -0.024042 0.044737 -0.071826 0.03331 -0.0235 -0.02845 -0.0379 -0.028482 0.027015 -0.048764 -0.019475 0.080264 0.00080534 -0.0033454 0.025442 -0.033687 -0.022619 -0.040665 0.030864 0.0047433 -0.05177 -0.029209 0.021768 -0.049026 -0.036636 -0.017522 0.068907 -0.061697 0.016967 8.9721e-05 0.019056 0.033693 0.03559 -0.061781 0.0098063 -0.029778 0.12111 0.010313 -0.026174 -0.041414 0.13104 -0.0096337 0.007506 0.067905 -0.044057 0.031756 -0.016816 -0.014287 -0.023161 0.023237 0.030717 0.029847 -0.063846 -0.012286 0.033228 -0.021153 0.0084175 -0.0057473 0.014908 -0.0021859 0.0058035 -0.081192 0.022098 -0.005311 0.085724 0.01222 
Amén 0.076949 0.0047114 0.073013 -0.041516 0.085699 0.073476 -0.045389 -0.057696 0.014843 0.054025 0.037146 0.16761 0.078197 -0.0023107 -0.03052 0.064155 -0.051914 0.01237 0.12109 -0.049591 0.08373 0.022456 -0.057292 -0.019229 0.067581 0.054327 -0.15432 0.088842 0.061314 0.10169 0.021481 0.11739 -0.058153 0.12544 0.077113 -0.030764 0.041627 0.013088 0.020062 0.047517 0.12725 -0.07055 -0.098672 0.11306 0.04149 -0.047424 0.0078024 -0.0643 -0.014058 -0.023846 -0.16351 -0.028599 0.05898 0.040726 -0.05467 0.13954 0.12579 0.028781 0.011196 -0.051022 0.088924 -0.042859 -0.14782 -0.12245 0.083398 -0.024801 0.057402 0.099353 0.10073 0.063812 -0.018961 0.03332 0.13001 -0.017745 0.014466 -0.010494 -0.0083525 -0.061537 0.068292 -0.014408 0.079575 -0.096817 -0.030135 0.05386 0.17866 0.30054 0.099318 -0.16513 0.046274 0.016752 0.00026207 -0.16024 -0.14006 0.045779 0.12505 0.0049903 -0.024037 -0.00074746 -0.03728 0.010628 -0.027982 -0.097855 0.02006 0.053441 0.038168 0.12923 0.043929 0.074944 -0.094443 0.036528 0.10694 -0.019554 0.013442 0.057214 -0.012749 -0.074043 -0.085934 -0.082838 0.18183 0.10584 0.12839 0.013214 -0.065666 -0.075038 -0.054607 0.014455 -0.052498 -0.05289 0.13214 0.026712 0.095138 0.13783 -0.11398 -0.034314 -0.032671 0.10869 0.0098563 -0.13278 -0.079837 0.12802 0.0094877 -0.10508 -0.035485 0.024556 -0.10307 0.071543 -0.23622 0.042785 0.23768 0.00097916 0.1179 -0.089192 -0.0055607 -0.14154 0.065019 0.091348 0.053873 0.064456 -0.080952 -0.027105 -0.071034 -0.070223 -0.073528 -0.20611 -0.082839 0.18029 -0.028432 0.047934 -0.10882 -0.054068 -0.060635 -0.0062039 0.13439 -0.09284 0.080868 0.10209 0.0041313 0.033732 -0.035145 0.05443 -0.076749 0.067514 0.050927 0.017732 0.099838 0.12731 -0.072093 0.05815 -0.049551 -0.11121 0.040977 -0.025002 -0.084772 -0.034653 0.058408 0.1019 -0.024795 0.030032 0.017002 0.059505 0.13647 0.093181 0.045449 0.065416 0.064936 0.13008 -0.0072145 -0.2292 0.026062 -0.039018 0.016139 -0.076748 -0.029105 -0.016176 -0.067084 -0.033128 -0.0030107 0.0028967 -0.062629 -0.0349 0.0016091 0.0112 0.1561 -0.073464 0.012755 0.16344 -0.036998 -0.028322 0.068515 -0.0095135 0.0015941 0.16225 -0.063319 -0.087475 -0.10234 0.067446 -0.12827 0.17108 -0.046983 0.062554 -0.15342 0.071174 -0.0092384 0.072709 -0.19541 0.11023 -0.041468 -0.0081899 0.078177 -0.11733 0.1866 0.058666 0.016194 0.15594 0.006681 -0.012672 0.068451 -0.0037645 0.074529 -0.051137 -0.045225 -0.044232 -0.0077516 -0.011612 -0.028045 -0.087939 0.072238 -0.0098662 -0.092136 0.05425 0.04468 0.042706 0.0069436 0.13047 0.10108 -0.083946 0.022915 -0.015587 -0.10171 -0.03516 0.095905 -0.075749 0.043327 -0.051542 -0.12924 0.032122 0.14159 0.016404 0.036567 0.017019 -0.030541 0.0048719 -0.0099188 -0.079603 0.057948 -0.024191 -0.021646 0.16189 0.037398 -0.0035539 
América 0.051086 0.036794 0.077623 -0.0076916 -0.047665 -0.017704 0.000693 -0.028089 -0.00073638 -0.089276 -0.050271 0.032682 0.04196 0.012763 -0.04829 0.033948 0.032344 0.06965 0.012469 0.024492 0.0145 -0.052968 -0.024108 -0.037525 -0.046228 -0.043975 -0.058018 -0.077026 0.0020515 0.023802 0.053929 -0.017711 0.031899 -0.041297 -0.015958 -0.034864 -0.0061728 -0.045182 0.017555 0.054979 0.048001 0.026665 0.041177 0.050053 0.02365 -0.036666 -0.012742 -0.026446 -0.012995 -0.11707 0.044406 0.030849 0.071841 0.018703 -0.048931 0.025745 0.0049935 -0.017923 0.01521 -0.027689 -0.036297 -0.01288 0.020123 0.017745 0.015369 -0.16291 0.043605 0.046208 0.03819 0.022831 -0.072911 0.020957 0.060274 -0.051129 -0.047915 0.040175 0.0058893 0.017042 0.0073304 -0.050164 -0.015656 0.027505 -0.041057 0.074895 0.056743 0.031247 -0.040257 0.010885 -0.0050121 0.030375 0.010512 -0.00096409 0.0031065 0.0065953 -0.035429 0.073296 0.043192 0.049846 0.011222 0.092199 0.0030007 -0.032629 -0.078416 -0.0075775 0.015677 -0.015695 -0.055379 0.017393 0.0022818 0.024331 -0.0078977 -0.0077449 0.015665 -0.026393 0.070432 -0.074798 -0.013116 0.0569 -0.032684 -0.025369 0.016129 -0.022768 0.030543 -0.021689 0.032939 0.0098343 0.019243 -0.001606 -0.055669 -0.010391 -0.0011699 0.061854 0.040212 -0.043467 -0.043603 -0.0017519 0.04272 0.030736 -0.054318 -0.075154 0.0011857 -0.0025786 0.037321 -0.019424 0.0382 0.031663 -0.015052 0.12065 -0.048742 -0.063739 -0.012885 0.037081 -0.012822 0.0040816 0.051349 0.01246 0.020297 -0.025827 -0.0389 -0.019134 -0.062238 -0.026434 0.019338 -0.017627 -0.060261 0.0038761 -0.0065748 0.0077643 0.0026984 -0.020955 0.018617 0.0011881 -0.038122 0.026544 0.033568 0.0054686 0.0028592 0.029411 -0.03917 -0.041238 0.027693 0.068808 0.0046344 0.026838 0.0215 -0.091831 -0.04708 -0.024727 -0.041226 -0.023002 -0.058021 -0.010335 -0.021833 0.021954 0.018119 0.030637 -0.013556 -0.033817 0.00098624 0.029262 -0.045942 0.029206 -0.053745 -0.028355 0.08127 0.097461 -0.0025342 -0.10696 -0.015616 -0.041628 -0.02544 -0.03526 0.057112 0.034538 -0.070833 -0.037029 -0.056489 0.036186 0.034185 -0.072228 0.017436 0.027637 -0.036599 0.0047308 0.019981 0.00076006 -0.021768 0.04029 0.013286 -0.052408 -0.0021178 -0.012033 0.026213 0.034872 -0.023707 0.0053734 -0.062019 0.0056447 -0.026898 -0.010877 0.012023 0.015781 0.01624 0.03008 -0.056346 -0.0066496 -0.025663 0.025159 0.049323 -0.061826 -0.070351 -0.026618 0.096406 0.053762 0.074771 0.0065429 0.034203 -0.0094597 0.017537 0.011156 -0.02333 0.0050816 0.012958 -0.052355 -0.010712 0.0030608 -0.02756 -0.017676 -0.016486 -0.0034607 -0.0075613 -0.020316 -0.022429 -0.0043902 0.034636 -0.048686 0.0016642 0.077362 -0.0034464 0.023172 -0.023253 -0.040882 -0.00068583 -0.001577 -0.054653 -0.025653 -0.043759 -0.010012 0.053712 -0.043435 -0.03554 -0.015764 0.0079375 0.012037 0.047598 0.086274 -0.033799 -0.010351 -0.0075444 -0.027478 
An 0.072651 0.38477 -0.019723 0.024335 -0.15137 0.088852 -0.20862 -0.043524 -0.46455 0.66204 -0.17617 5.1623e-05 0.011862 -0.44809 -0.16334 0.036831 -0.010548 -0.33845 -0.23116 -0.090755 0.14979 0.44993 -0.34993 -0.81396 0.027467 0.12189 0.12727 0.15641 0.020354 -0.64936 0.16393 0.013685 0.026495 -0.14199 -0.10716 0.031851 -0.28344 -0.11576 0.24752 -0.046444 0.55236 0.35397 -0.29824 0.13146 -0.10026 0.32236 -0.016501 -0.12578 0.016578 0.21935 -0.18 -0.058691 0.30392 -0.013261 -0.16863 -0.0014607 -0.095816 0.12473 -0.1591 0.39103 0.21594 0.027114 0.17272 0.14186 0.39971 1.0558 -0.55269 0.034385 0.119 0.060788 -0.2494 -0.20998 0.082767 -0.24023 0.071603 0.22689 -0.070373 -0.17035 -0.22945 0.69327 -0.32927 -0.30945 -0.0028916 -0.053204 0.16077 -0.32274 -0.067813 -0.43234 -0.12301 -0.061066 0.18601 -0.17439 0.20711 -0.079388 0.2479 0.00053353 -0.25499 -0.21152 -0.059602 -0.089485 -0.27462 0.27688 -0.3253 0.05114 -0.058023 0.053901 -0.10568 0.17208 -0.65642 -0.35508 -0.097862 -0.28086 0.39449 -0.056475 -0.25211 0.037021 -0.044271 -0.12591 0.064546 -0.65219 0.075898 -0.46082 -0.78837 0.078965 0.32973 0.26305 0.03679 0.042965 0.049417 -0.061581 -0.15313 0.067646 0.16052 -0.096647 0.19389 -0.15839 0.098082 -0.33484 -0.33648 -0.069597 0.052117 -0.096097 -0.07708 -0.23356 0.043973 0.17542 0.53501 -0.024097 0.0085022 -0.30024 -0.17669 -0.63908 -0.4082 0.011023 0.27949 0.1428 -0.18131 0.50693 -0.19702 -0.4163 -0.07454 0.13218 0.25971 -0.38405 -0.26222 0.054986 -0.32735 -0.028478 0.44325 -0.037557 -0.32503 0.37956 -0.026856 0.23521 0.11549 0.18081 0.093448 -0.014711 0.021936 0.13364 -0.22539 -0.32518 -0.49237 0.023981 0.15347 -0.12902 -0.15974 -0.13283 0.13721 0.22187 0.0068564 0.088193 0.30423 -0.49291 -0.25623 0.092703 -0.26754 0.081377 -0.065868 -0.18994 0.21444 -0.4441 0.3333 -0.09006 -0.21876 -0.096413 -0.22895 -1.3716 -0.10346 -0.041669 -0.31578 0.056357 0.12985 -0.040993 -0.027507 -0.18118 -0.30469 0.010127 -0.035572 0.38416 0.1088 0.36113 -0.12795 0.12627 -0.0092473 0.03194 0.4258 0.037018 -0.5384 0.207 0.15274 -0.44711 0.13224 -0.34928 -0.072673 -0.10289 0.21216 0.1838 -0.003243 0.15539 0.03677 -0.089499 0.11385 -0.16293 0.27823 -0.43401 -0.1298 0.2352 0.73457 -0.13668 0.13144 -0.22093 -0.089985 -0.078503 0.027919 0.82331 -0.40682 0.23131 0.01192 0.12265 -0.26038 -0.25465 0.41031 0.55781 -0.17005 0.071929 0.11214 0.1638 -0.24462 0.0070079 0.13399 0.17069 0.10606 -0.0034621 0.048294 0.0061269 0.020733 -0.076923 -0.023445 0.07804 0.15462 -0.18716 0.28882 -0.080463 0.62212 -0.4336 0.29844 -0.22987 -0.22869 -0.10699 0.14886 -0.35825 0.1062 -0.53339 -0.16526 0.18148 -0.074944 -0.11242 0.059682 0.37423 
AnTeX 0.034817 0.0048749 0.018441 0.043214 -0.0018893 0.032857 -0.010039 -0.026789 -0.030524 -0.041699 0.013445 0.0061056 0.04059 0.057887 0.0012875 -0.077101 -0.0095443 -0.0050551 -0.0066081 0.020187 0.012334 -0.033869 0.0045746 0.039757 -0.0081596 0.0088147 -0.039252 -0.030508 -0.0035944 0.072572 0.040632 -0.055059 0.044116 -0.012949 0.0047185 0.010262 -0.022679 -0.012315 -0.058999 0.011903 0.034432 -0.028311 -0.030165 0.0067375 -0.016081 -0.016167 0.071983 0.0081316 -0.017847 0.033671 0.069485 0.0068476 0.00057424 -0.042959 -0.013227 -0.017813 0.029634 0.00512 -0.03685 -0.0038972 -0.012915 -0.012629 -0.018187 -0.025227 0.031735 -0.014211 -0.049011 0.07065 -0.026491 -0.064852 0.0012154 0.023079 0.028777 0.047272 -0.014402 0.047007 0.028498 -0.021422 -0.0081078 0.040449 0.015841 0.011391 -0.077184 0.023196 0.0035206 -0.010091 0.023819 -0.017481 0.040073 -0.0056703 -0.0026053 0.029735 -0.05165 0.051074 0.004362 -0.036088 -0.02708 0.044733 -0.026505 -0.030855 -0.0067383 -0.0076276 -0.018508 0.012406 0.010494 -0.022462 0.04006 0.032985 -0.025483 0.02845 -0.034607 -0.096147 0.11332 0.059123 -0.024354 0.0060144 -0.0019948 0.01718 0.12183 -0.0095698 0.019395 0.0081675 -0.037174 0.016973 0.050993 -0.021769 -0.021793 0.02447 -0.031801 0.015092 0.018682 0.051428 0.014643 -0.034319 0.0087886 -0.02085 -0.022077 0.005545 -0.033871 -0.016782 -0.034056 -0.0068823 0.0038009 -0.0079086 0.0063171 -0.0017533 -0.012044 -0.048851 0.030276 -0.010011 0.019257 -0.0051913 -0.0093746 -0.038408 -0.023348 0.016516 -0.027954 -0.032289 0.022341 0.017306 0.019456 -0.0076127 0.02152 -0.025238 -0.029884 0.033614 -0.030858 -0.029927 0.0057625 0.039617 -0.0075378 -0.018065 -0.031446 0.047205 0.038918 0.041425 -0.02465 0.025696 0.017594 -0.046652 0.013645 0.012919 -0.076631 -0.0056839 -0.020811 -0.0038561 -0.035459 -0.071173 -0.0067367 0.00025157 0.015479 -0.0091013 0.056711 0.041877 0.016235 0.0053231 0.0079376 0.0014617 0.017375 -0.01224 -0.0037563 -0.070408 0.022407 0.019462 -0.0038427 0.047923 -0.044058 -0.049347 0.0083942 -0.024883 -0.0099115 0.02144 0.026059 0.029439 -0.012356 0.01787 -0.013131 -0.037621 0.021265 -0.00028783 -0.016753 -0.016888 -0.027744 -0.016652 0.0007588 0.010854 -0.020272 -0.0081677 -0.032871 0.024284 0.012253 -0.025535 -0.054412 -0.017442 0.0063917 -0.0048209 -0.0076834 -0.00033405 0.0080081 -0.013612 0.0085342 -0.01135 0.0045338 -0.00060807 -0.027314 0.024871 -0.032618 -0.067428 0.03577 -0.008508 0.064806 -0.014153 0.02668 0.0083605 0.037439 0.18871 0.069571 -0.056036 0.009169 -0.026438 -0.059538 -0.045248 -0.057367 -0.038993 -0.031967 0.037983 -0.0032605 0.016118 0.0026925 0.04491 0.0058134 -0.0033897 -0.029015 -0.028666 0.072363 0.0065816 -0.0073488 0.0070497 0.0035331 0.040032 0.027704 0.039261 0.030662 0.021297 -0.05599 0.034866 -0.016787 -0.018068 0.023084 0.019742 -0.0027244 -0.034608 0.034398 0.053904 0.016972 0.05936 -0.034904 -0.0093903 -0.03113 -0.0074765 
Ana -0.067301 0.010787 0.31875 -0.096796 0.012657 -0.039853 -0.11115 0.013081 -0.009097 -0.22496 -0.067226 0.058536 -0.016723 0.048085 0.047762 0.1314 0.062337 -0.19707 -0.10823 0.01565 -0.11126 0.030443 0.025559 -0.17704 0.021185 -0.057602 -0.21211 -0.11836 0.015938 0.050353 -0.13803 0.059425 -0.1571 -0.094981 -0.0023165 0.034231 -0.013651 0.058165 0.089012 0.036343 0.36243 -0.023911 -0.02587 0.051218 -0.27915 0.092327 -0.3455 -0.0082812 -0.037941 -0.030662 -0.16022 0.12433 -0.017111 -0.08359 -0.02737 0.22369 -0.14745 -0.14864 0.20893 0.045563 -0.046098 -0.062699 0.037759 0.10094 -0.096677 0.080011 0.092497 0.12981 -0.05898 0.24955 0.056927 0.032753 0.018059 0.044168 -0.0032116 0.091644 0.023907 -0.01998 -0.079503 -0.19955 0.057234 0.078724 0.15874 0.063938 -0.06206 0.15968 0.0069354 -0.049456 -0.0623 0.047047 -0.014199 0.060955 -0.054319 0.013822 0.13937 0.018852 0.048462 -0.094066 -0.19347 -0.097707 0.11899 0.090749 -0.39713 0.024036 0.063561 -0.037764 -0.0092714 -0.008199 0.15709 0.026648 -0.031498 -0.084945 -0.010897 0.0089775 0.11398 -0.053351 0.083575 -0.18926 0.24137 0.093721 -0.057668 0.010578 -0.0043583 -0.01853 -0.017033 -0.018281 -0.022471 0.044504 0.00068792 -0.047983 0.08127 0.024148 -0.12814 -0.16351 -0.040314 -0.072959 -0.21473 -0.1047 0.25437 0.041228 0.016605 -0.18374 -0.00045172 -0.089443 0.052825 0.062507 0.051209 -0.060833 -0.053506 0.013159 0.0058256 -0.071806 -0.19414 0.10959 -0.12655 -0.07152 -0.028738 -0.020381 0.044784 -0.090834 -0.080559 -0.024524 -0.088226 -0.0067416 0.087778 0.10817 0.0098816 0.081016 0.13602 -0.049529 0.0099112 -0.1037 -0.099209 -0.1813 -0.20603 0.10551 0.090926 -0.083193 -0.023674 0.069483 -0.017376 0.096275 0.081195 -0.021131 0.11603 0.026911 0.077925 0.021184 0.098663 -0.11128 0.03223 -0.073946 0.045539 0.32783 -0.058491 0.17966 -0.22201 -0.083941 -0.16069 0.3498 -0.084138 -0.12587 -0.028629 -0.15996 -0.12255 0.28024 0.035931 -0.34087 -0.13845 -0.043723 -0.15837 -0.16666 -0.10825 -0.059762 -0.13254 0.20421 -0.078104 0.12745 -0.076084 0.0982 -0.034776 0.097643 -0.0063273 0.12048 -0.087146 0.031778 -0.015158 0.01854 0.042257 0.002261 -0.011993 0.2138 0.12292 0.052005 -0.039299 -0.029947 -0.02285 0.021492 -0.12208 -0.02329 0.03815 0.023187 0.046196 0.0048314 -0.22826 -0.206 0.096975 0.0070077 0.092668 -0.21272 -0.034076 0.1246 0.23224 0.087805 -0.075623 -0.0076813 -0.19876 -0.00017797 0.052729 0.033956 -0.088729 0.10553 0.052091 0.089802 0.071842 -0.05929 -0.098454 -0.097122 0.042967 0.077476 0.021527 -0.024471 -0.10494 -0.01842 0.13158 0.054879 0.053529 0.089961 -0.0082223 -0.020501 0.0049679 -0.04958 0.075371 0.29054 -0.21647 -0.056852 0.15727 0.090718 -0.091177 -0.086798 -0.16531 -0.22468 -0.027551 -0.01568 0.09854 -0.026416 0.0017114 0.067305 -0.048667 0.039385 
AnaB_16 -0.012468 0.0070446 0.0055075 -0.0010981 -0.0024231 -0.0059989 -0.0030935 1.8521e-05 0.0038558 0.00302 0.0057147 0.019373 0.0064279 -0.011489 -0.0029586 -0.0097842 -0.0077453 0.011376 -0.006117 -0.002 -0.0033397 0.0061814 -0.0044106 0.00096337 0.0054767 0.0069882 -0.012113 0.0089858 0.0010866 0.0028505 -0.0044788 0.0021937 0.0076702 0.0042118 0.0016851 0.004857 -0.0037511 0.0069178 0.0052545 0.0040739 0.016218 -0.0011752 0.0009608 0.00053806 -0.0084673 -0.0022842 -0.012375 0.0031398 0.0059421 0.00065154 0.0073256 -0.0091607 -0.0050392 -0.0095181 0.0075709 -0.00085958 0.0016386 -0.0052373 0.0038079 -0.00041862 -0.00301 -0.0060234 0.00070046 -0.0054565 -0.00047584 0.0057491 -0.007083 -0.014005 0.0086167 -0.0019908 0.0054822 0.0021235 -0.0026365 0.0050946 0.0023549 0.0030324 0.0058703 -0.0018742 -0.0080513 0.0092576 0.0071211 -0.0076246 0.0031069 0.002102 -0.01035 -0.010779 0.0044407 -0.0010152 0.006331 0.0038359 0.0071814 0.0012057 -0.0031019 0.0012139 -0.00036597 0.0053835 0.0049607 0.0061132 0.0046856 0.0035695 -0.0097593 0.001692 -0.0050557 -0.0049915 1.8392e-05 -0.0024571 0.004026 0.010207 0.0061734 -0.0067152 -0.0018365 0.0019849 0.0056723 -0.0055649 0.0027989 -0.0050616 0.0016389 -0.0067835 0.013998 -0.0066818 0.0013107 -0.0084482 -0.013788 0.0035525 -0.0068316 -0.0080413 -0.015251 -0.017646 0.0098595 -0.0071755 -0.0014755 0.013463 0.0015424 -0.0076353 -0.0036687 -0.0091671 -0.001053 -0.0052102 -0.003975 0.0022939 0.003147 -0.018137 0.00042254 -0.0078913 -0.00095835 0.0017184 0.0016362 -0.001174 0.0067443 -0.0063609 0.003524 -0.0034992 -0.0025331 -0.0061957 -0.0030746 0.000437 0.0037453 0.004304 -0.0021365 0.0030541 0.0030627 0.0013923 -0.0042267 0.0034456 -0.0022283 0.0026733 -0.0021575 0.00046165 0.01443 -0.0011969 -0.0076262 -0.0063518 0.00692 0.010462 -0.00015156 0.019092 0.0049352 0.0044183 0.0036097 0.012235 -0.0023597 -0.0052463 0.012132 0.0036616 -0.0049127 0.011305 0.01253 0.0086274 0.0036322 -0.0027468 -0.008303 -0.0020618 -0.00019227 -0.008054 -0.0064138 0.018829 0.0032753 0.0010983 0.0027605 0.0046299 -0.00096021 -0.0051042 0.0063292 0.0024888 -0.004621 0.00081641 0.0043774 -0.035146 0.0079434 -0.00070363 0.0045531 -0.0061618 0.00040177 -0.0063181 0.010046 -0.0017519 0.0032768 -0.0039064 0.001321 -0.0078607 -0.0042476 -0.0017936 0.0039444 0.00014323 -0.00065977 -0.0066085 -0.00033513 0.00098323 0.0061173 -0.0030711 0.0047679 0.00080707 0.0025942 0.0034872 0.0044741 -0.0010964 0.0070364 -0.0027018 -0.00016948 -0.0051701 -0.0049245 -0.0037329 -0.0048275 -0.0049988 -0.01074 0.0011338 -0.0091262 0.0065731 0.010532 -0.0034443 0.014083 0.0037226 0.0151 0.0017503 0.0079401 0.039194 0.0083297 0.0030996 -0.00093803 0.0044865 0.0070736 -0.0039078 -0.0038133 0.0044287 0.00040058 0.00020034 -0.0029615 0.0045353 0.0041418 0.0043738 0.0034941 -0.004814 -0.0095249 -0.00094791 0.0021233 -0.010969 0.0032992 -0.0043168 0.0015823 -0.0038248 -0.003042 -0.0083083 0.0033004 0.0046175 0.0083943 -0.00047339 0.0045169 0.0035168 -0.0030461 -0.0060041 0.010659 -0.020194 -0.0059194 -0.0064638 0.007104 0.0059216 0.012068 0.0060845 -0.004996 -0.0005669 
AnaG_ot2017 -0.028183 -0.041221 0.077545 -0.013196 -0.0026099 -0.014356 0.003413 -0.00086817 0.015188 0.02269 0.031358 0.009887 -0.010432 0.022203 -0.039933 0.042536 0.0053893 0.032269 0.0092793 -0.01046 -0.0074882 0.021684 0.015118 -0.0029262 0.0089569 -0.0081473 -0.054425 0.0121 0.026461 -0.0023741 -0.0064559 0.019298 0.00069046 0.0031875 -0.0051166 -0.0080378 -0.039535 -0.0037925 -0.0052476 -0.023796 0.022494 -0.010247 -0.023587 -0.009584 0.00212 -0.00076538 0.033598 0.0014418 -0.010096 -0.0098428 0.0032238 -0.049157 0.03124 -0.014665 -0.0014656 0.0099435 0.0078339 0.0045289 0.047991 0.021236 0.00037461 0.0039543 -0.0034658 0.010638 -0.011013 0.0099365 -0.012139 0.014751 0.014682 -0.022838 -0.0027316 0.0094739 0.0042397 0.024985 0.018825 -0.029533 0.043549 -0.019122 -0.017744 -0.014666 0.031859 -0.006597 0.0047962 0.0091794 0.024482 0.038158 -0.0093496 0.018138 0.091321 0.029684 -0.031121 -0.024993 -0.028918 0.020687 0.016829 0.0031672 0.028811 -0.017913 0.023852 -0.0030665 -0.043675 -0.0022463 -0.015706 -0.011927 0.02447 -0.047999 -0.04035 0.020282 -0.012446 0.029552 -0.012803 -0.014225 0.0078418 0.011762 -0.029893 -0.016317 -0.012258 -0.030153 0.046452 0.037317 0.005026 -0.024575 -0.013505 0.0061971 -0.0026445 -0.016033 0.032924 0.015705 -0.00049205 0.019849 -0.0162 0.014149 -0.015655 0.0031296 0.0090642 -0.016052 0.013824 -0.021234 -0.047403 0.016824 0.013941 -0.03314 0.0031606 0.020565 0.017631 0.035766 -0.030734 -0.012031 -0.019341 -9.9803e-05 0.0090232 -0.021936 -0.0020471 0.00090845 0.0058477 -0.014477 0.0039816 -0.014804 0.030933 0.00027623 0.014046 0.03819 -0.0065658 -0.0065333 -0.013628 0.013429 0.012475 -0.01336 -0.0084947 -0.0092819 0.043653 0.0053295 -0.00089807 0.014546 -0.019025 0.07599 0.0029261 0.048325 0.0098757 -0.015972 0.026493 0.049889 0.0047605 0.015551 0.00038403 -0.0048194 0.00022812 -0.012548 0.0073141 0.011432 -0.016309 -0.0029332 0.00029308 0.037444 0.0070351 0.054069 0.016453 -0.01421 -0.0097347 -0.0053912 0.054842 -0.02039 -0.0023654 0.0018359 -0.00057419 -0.015476 -0.030907 -0.059372 0.016548 0.004564 -0.087696 -0.023377 0.01251 0.033416 -0.030212 -0.0094993 -0.001818 0.010732 -0.013896 0.0010431 -0.021399 0.0086923 -0.020713 0.0089362 -0.0067172 -0.01981 0.0032592 0.028985 -0.02783 -0.012102 0.0064256 -0.0418 -0.0033572 -0.0022069 -0.013212 -0.016002 -0.00045947 -0.023811 -0.0083034 0.018181 0.019599 -0.026894 -0.0029788 0.002974 -0.022805 0.015494 -0.00060505 0.0098804 0.025592 -0.053616 0.027362 -0.0053055 0.043512 0.025898 0.026389 0.13924 -0.010559 0.0027988 -0.0081729 -0.012543 0.002819 0.0031622 -0.0034203 -0.039132 0.00060554 -0.023182 0.015273 0.010692 -0.027028 0.020001 0.013945 -0.047821 -0.011929 -0.02544 0.057553 -0.037503 0.026514 0.0065169 -0.01508 -0.0058113 -0.0033927 -0.032938 -0.0051283 -0.021322 -0.0079337 -0.001611 0.0099818 0.021131 0.0028062 -0.0098381 -0.016411 -0.0003165 -0.00084875 -0.007946 0.0071847 0.0024687 0.0086079 0.0067226 0.00012144 0.023583 
Anahi 0.035416 0.064599 0.12519 0.0065414 -0.13918 -0.001365 -0.047629 0.031157 -0.075271 -0.057164 -0.0028617 0.0066233 0.018286 0.070206 0.17229 0.13231 0.01906 0.020212 0.02587 -0.0067488 -0.060619 -0.069746 0.0080455 -0.015539 0.04966 -0.00055658 -0.051701 -0.084021 -0.060977 0.043476 -0.04506 -0.059742 -0.029364 0.072247 -0.0061206 -0.045967 0.086016 0.11367 0.003378 0.029027 0.18217 -0.022996 0.0045427 0.092996 -0.29832 -0.011171 -0.1108 -0.025818 0.058215 -0.061541 0.082857 0.014373 -0.0048716 0.13093 0.063314 0.01914 -0.05491 -0.027491 -0.044024 -0.0072537 -0.076697 -0.16579 0.066261 0.1083 -0.086193 -0.010856 -0.075611 0.08538 0.079868 0.046129 -0.03552 0.060662 0.014529 -0.049222 0.015319 0.036277 0.029615 -0.11471 -0.040763 0.018798 -0.062407 -0.023864 0.056296 -0.02491 -0.097129 0.14241 0.04257 0.088369 0.0081384 -0.03792 -0.11453 0.10612 0.019303 0.053677 0.025268 0.0058098 0.0468 0.023171 -0.03244 -0.0096768 -0.061752 0.012451 -0.0084585 0.078004 0.026879 0.048814 0.0060821 0.0088765 0.053438 0.029603 0.096468 0.020463 0.061393 0.11937 0.056621 -0.10515 -0.00046358 -0.098821 0.10151 -0.013026 -0.0015468 -0.10646 -0.061325 0.028639 -0.15415 0.074844 0.050036 -0.045539 0.032453 -0.011553 0.015332 -0.025826 -0.034336 -0.065411 -0.11586 0.0044129 -0.11773 0.0041282 0.041139 0.045938 -0.037083 -0.075662 0.087497 -0.063072 -0.085142 0.11782 0.075132 -0.013932 -0.032027 0.018371 -0.24234 0.11997 -0.1006 0.057843 0.020214 -0.047934 -0.031508 0.011263 -0.071422 -0.14463 -0.044585 0.078573 0.059658 -0.014505 0.10342 -0.039415 0.052071 -0.039661 0.020923 -0.029033 0.019231 -0.013798 0.18431 0.08957 -0.035522 -0.019171 0.092048 -0.0098814 -0.010752 0.1817 -0.0052056 0.068809 0.075243 -0.014834 0.052679 0.024999 0.056131 -0.013609 -0.024458 0.050182 -0.074196 -0.079795 0.0025162 0.11173 -0.13622 0.037783 0.0063205 0.043952 -0.043742 0.13739 0.030376 -0.034122 -0.033886 0.086859 -0.02923 0.14222 -0.042412 -0.18703 0.0010861 0.22392 -0.070819 -0.065463 -0.011862 0.10786 -0.037596 -0.064615 0.030395 0.017084 0.025495 -0.080696 0.17585 -0.018471 -0.082432 0.16015 -0.027685 -0.007654 0.034466 -0.017466 0.017273 -0.057222 0.037531 0.11764 -0.053459 0.049017 0.068797 -0.01791 -0.13311 0.033622 0.01037 -0.034751 -0.084583 -0.0024314 -0.0053446 0.02644 -0.069319 0.023218 0.053138 0.012311 0.075448 -0.061699 0.028796 -0.035195 0.076366 0.089737 -0.23148 0.10778 -0.064049 0.061844 -0.039942 -0.05681 -0.067675 -0.067703 0.092345 0.023763 -0.020787 0.025335 -0.092018 -0.025574 -0.014327 -0.02317 -0.032839 -0.064493 -0.042221 0.095857 0.086394 0.046806 -0.0037383 0.08463 0.058044 0.010546 -0.0097405 0.013388 0.024837 -0.050086 -0.092932 -0.040318 0.072916 0.040115 -0.070767 -0.0018422 0.017831 -0.097347 0.03557 -0.027153 0.17743 -0.011918 -0.0074563 -0.023074 -0.0063461 -0.12721 
AnahiDebeResponder -0.017854 0.01824 0.01899 -0.004137 -0.031361 -0.034395 -0.0037793 -0.0033877 -0.0078598 -0.010829 -0.0016238 -0.0041876 -0.00069028 0.010277 0.0038472 -0.011041 -0.014606 0.022408 0.012675 -0.0031871 -0.016776 -0.008207 -0.046343 -0.0092395 0.0010846 0.010219 -0.028034 -0.011201 -0.010973 0.015631 0.0076564 0.0053627 -0.0094242 0.0066261 0.0073813 -0.029513 0.012398 0.014501 0.00053745 -0.010598 0.02053 -0.0081171 -0.0095923 0.0023632 -0.038748 -0.0048971 -0.058757 0.0052424 0.010716 0.0057161 0.004745 0.0071041 -0.014341 -0.0036494 0.0099313 0.013014 0.0093394 -0.018261 0.0058038 -0.010775 -0.0031877 0.0046234 -0.0056625 0.014787 -0.012849 0.023456 0.012613 -0.0010618 -0.00036877 0.016166 -0.0048746 0.022258 0.0064122 -0.021875 0.017385 -0.0029904 -0.011784 -0.017281 -0.0055362 0.0044625 -0.019562 -0.0084778 -0.0046971 -0.009938 -0.0013279 0.011932 0.011537 -0.00014496 0.03334 0.0027965 -0.003029 0.0043322 -0.027173 -0.0010737 0.014462 0.010402 -0.0092899 -0.0078509 -0.018094 0.010298 0.0070835 0.0015291 0.011419 -0.010078 0.0012785 0.0013488 0.0035923 -0.022012 -0.0031346 0.030798 0.0027673 0.0046966 0.0009427 0.022544 -0.019291 -0.0093868 0.022047 -0.010974 0.014349 0.0078224 -0.017639 -0.025113 -0.020802 -0.022787 -0.018684 -0.00077738 -0.003264 -0.004675 -0.0087059 -0.016117 0.0043846 -0.031008 0.00039825 -0.034379 -0.019397 -0.013393 0.0045789 0.016783 -0.012929 0.012884 -0.0048447 -0.0039959 -0.0027784 -0.023314 -0.035184 -0.013892 0.0073595 0.0050496 -0.0088358 -0.014105 -0.001083 0.016244 -0.015736 -0.0050825 0.0029988 0.0065647 -0.0018923 -0.0047376 0.012152 -0.023675 -0.0076657 -0.023338 -0.0022827 -0.0002393 0.018302 -0.0030242 -0.012746 0.010281 -0.016649 0.0048894 1.6709e-05 -0.013208 0.0015965 0.010723 -0.0011342 0.016933 0.018743 -0.00045446 0.03715 0.0075247 -0.017303 0.0045699 0.0044311 -0.0090931 -0.014967 0.019802 0.031434 0.0017465 -0.0033179 0.010402 -0.0090146 -0.012638 0.0020163 0.0049331 -0.0056506 0.0084326 0.0027785 0.025318 -0.017495 0.053739 0.0038056 0.020245 0.019874 0.00277 -0.0088871 0.024301 0.012201 -0.037665 0.0029097 0.0035255 0.014679 0.015243 0.010228 -0.021017 0.02045 -0.0022466 0.021334 0.0034301 0.0036142 0.0015645 0.014564 -0.018496 0.009393 0.00040901 -0.020605 -0.0062614 0.0088205 -0.0050684 0.023978 -0.0018663 0.019449 0.013899 0.00056698 -0.010809 0.017567 0.019193 -0.011398 0.012787 0.0024555 0.00012708 -0.0014532 0.0024753 -0.0001486 0.020766 -0.001409 0.0093155 0.020004 0.0087891 0.0054294 -0.035567 0.025594 -0.0039587 0.010031 0.011152 -0.0030493 0.0077125 -0.006531 0.0053792 -0.012754 -0.021783 -0.0073086 -0.011735 0.00019771 0.028292 0.0067941 0.018532 0.0072031 0.0037253 -0.0027804 0.023306 -0.013505 -0.028424 0.012467 0.0030972 0.0076788 8.4593e-05 -0.011285 0.012585 -0.0052438 -0.017924 0.0071767 -0.0063105 0.023632 -0.013184 0.0063285 0.013294 -0.024534 0.017251 0.016768 -0.010949 0.019497 -0.0072683 0.016101 -0.007524 -0.00028771 -0.02167 -0.0068842 0.019533 0.0087588 -0.0099371 
Anas 0.024608 0.14217 0.2011 -0.14642 -0.0085027 0.10895 -0.19336 -0.034282 -0.13127 -0.002659 -0.028448 -0.051502 -0.046115 -0.15441 -0.059159 0.081293 -0.10378 -0.0026196 -0.043405 0.011611 0.03656 -0.29992 0.039979 -0.19719 0.29874 -0.18813 -0.18093 -0.14513 -0.057128 0.0026212 0.042345 -0.15831 -0.079701 -0.2151 -0.18445 -0.072496 -0.027717 0.06028 -0.0914 -0.017235 0.17002 -0.058962 -0.052578 0.075013 -0.079506 0.18922 -0.33923 -0.02541 0.19432 -0.20291 -0.054817 0.1113 -0.02676 0.052569 -0.048812 0.086807 -0.1156 -0.15165 0.013205 0.25292 -0.027825 -0.13661 0.064102 -0.090656 -0.1379 -0.041727 -0.01682 -0.049449 0.036368 -0.0052195 0.095127 -0.031679 -0.059538 -0.12196 0.038357 0.17356 0.046143 0.02585 0.035175 -0.099431 -0.11186 -0.067325 -0.1317 0.19575 -0.0088994 0.14928 -0.10777 -0.067154 0.026763 0.042259 0.12186 -0.10512 -0.14621 0.0026806 0.16403 0.11811 -0.060188 0.04663 -0.12499 -0.034128 -0.031687 -0.37764 0.076703 0.12213 -0.074407 -0.15144 0.049587 -0.13189 0.053719 -0.087436 -0.046758 -0.015032 -0.033599 0.18045 -0.15371 0.12507 0.21659 0.089046 0.058163 -0.25656 -0.20433 0.069012 -0.15062 0.087256 -0.074812 -0.11915 -0.02402 -0.081005 0.050711 -0.07288 -0.018588 0.14293 0.034898 -0.24096 0.00061466 0.060171 0.036572 -0.19065 -0.12615 0.073294 0.065743 -0.090335 0.026924 -0.23946 0.053127 0.10144 -0.024285 -0.019119 0.063388 0.051272 -0.011333 0.096711 0.16585 -0.081722 -0.21335 -0.094254 -0.20217 0.085785 -0.12523 -0.13829 0.027395 -0.15434 -0.23535 0.15784 0.15637 0.13771 0.050782 -0.075059 -0.057058 0.018344 -0.2679 -0.016788 0.11607 0.090149 -0.048658 0.086738 0.056347 0.082743 0.1098 0.22786 0.0067996 0.10904 -0.040422 0.076046 0.18628 0.13274 -0.053375 -0.1384 -0.23946 -0.056345 -0.20546 -0.18873 0.2514 0.099356 -0.0040984 0.013072 -0.0048225 -0.031036 -0.03546 0.40082 0.13292 0.044451 0.028655 0.12285 -0.060597 -0.017287 0.073109 -0.35973 0.051294 -0.016473 -0.22104 -0.012559 -0.1083 -0.14472 -0.060765 0.20073 -0.040673 -0.27623 0.23008 0.10742 -0.13945 0.068471 -0.032534 0.21051 0.011898 0.038458 -0.0047411 0.034278 -0.012688 0.071956 0.016299 0.05078 0.1156 -0.012381 0.14997 -0.020859 -0.055934 -0.23796 0.026705 0.062429 0.17473 -0.19936 -0.018033 -0.01704 -0.063157 0.029269 0.00094086 -0.063571 -0.016845 -0.032193 0.014403 -0.068132 0.17892 -0.084872 0.099601 0.31879 0.023364 0.095415 -0.10647 0.15102 0.1995 -0.0044129 -0.059988 -0.29686 -0.0046739 -0.28698 -0.045949 -0.25315 -0.029163 0.21476 -0.032912 -0.028277 0.042225 -0.0047518 0.13304 -0.10198 0.069038 0.11338 0.054136 -0.025337 -0.090704 -0.086931 0.096653 -0.094282 -0.13584 -0.13083 -0.20015 -0.030686 -0.11674 0.022822 -0.11008 -0.1915 0.068168 -0.21896 -0.040635 -0.050923 0.0036717 -0.047748 -0.12807 -0.15985 
Anastasia -0.015019 0.035412 0.057969 0.0013862 -0.023112 -0.064095 -0.042354 0.039134 -0.010567 -0.044716 -0.050609 0.014107 -0.055519 0.017539 -0.042409 0.01612 0.032782 -0.025527 -0.039569 -0.010072 0.013608 -0.026591 0.050537 -0.0019075 -0.017388 -0.021663 -0.0048988 -0.019408 0.028155 -0.047706 -0.051506 -0.0047416 -0.0043081 -0.00137 0.034637 -0.020679 0.035545 0.0025615 0.0050032 -0.032911 0.067303 -0.011548 -0.0021039 -0.029728 -0.13975 0.01594 -0.09009 0.063902 -0.051194 0.04724 0.0085311 0.01142 -0.022783 -0.019537 -0.047782 0.047752 0.0016557 -0.0095218 0.021671 0.096914 -0.026419 0.01963 -0.0055371 0.011433 -0.003025 -0.0042549 0.018931 0.024174 0.0015503 0.008692 -0.0047366 -0.0088346 -0.018055 0.020599 -0.011238 0.053374 0.033226 -0.016845 0.0090287 0.019862 0.014283 0.015559 0.004015 -0.004283 -0.0023988 0.026814 0.060867 0.035769 0.01172 -0.01492 -0.018473 0.042108 0.0063618 -0.011708 0.029879 0.01445 -0.0022368 -0.027026 -0.01662 -0.042761 0.06408 -0.022115 -0.024702 0.0099074 -0.00054389 -0.018932 0.066 0.079799 0.026795 -0.018574 -0.00021088 -0.02627 -0.0014965 -0.03417 -0.018579 0.0060959 0.00032057 -0.069289 0.058964 0.051695 -0.058015 0.016074 -0.019252 0.011242 -0.018385 0.0041107 -0.0040205 0.014166 0.0070429 -0.019639 0.056656 0.024206 -0.0059293 -0.014511 -0.052063 0.01734 -0.061284 -0.050796 0.0035303 0.024626 0.05248 0.0075653 -0.0044227 -0.050585 0.01648 -0.0078899 -0.005692 0.004306 -0.0016829 -0.022743 -0.025898 -0.0025 -0.020677 -0.033432 -0.050199 0.061973 -0.015729 0.018692 0.05482 -0.043933 0.024787 0.03352 -0.032382 -0.0071905 0.0024593 0.011596 -0.036102 -0.020937 0.017016 -0.019213 0.028153 -0.018034 -0.036422 -0.0586 -0.02573 -0.030755 -0.050873 0.015019 0.0069312 0.014167 0.020819 0.024918 0.0093786 0.0029524 0.037653 -0.068935 0.01294 -0.0019207 0.01697 -0.031813 0.041908 -0.026752 0.02606 0.069956 -0.061894 0.034538 0.022168 -0.06749 0.013301 0.14606 0.012768 -0.031257 0.024786 0.02914 -0.0032861 0.054166 0.0050956 -0.07702 -0.027758 0.041536 -0.029145 -0.032942 -0.0037988 -0.023382 -0.054942 0.076248 0.0097604 0.0092015 -0.015981 0.025953 0.03806 -0.018273 0.023486 0.048165 -0.027333 0.011679 0.009804 -0.034596 0.0075006 -0.0090935 -0.047642 -0.0084122 0.0088134 -0.02218 0.0097826 0.0092784 0.015659 -0.037823 -0.031766 -0.0099357 -0.027017 -0.010967 -0.019496 0.029769 -0.048688 -0.039162 0.046111 -0.0048488 0.034586 -0.063948 0.013705 -0.022161 0.0020095 0.031098 -0.0039139 0.043248 -0.04964 0.045994 0.022165 -0.043799 0.0029664 0.018369 -0.011291 -0.010826 -0.0055789 -0.060091 -0.0059438 -0.016576 0.059857 0.070025 -0.02428 -0.048829 0.033511 -0.020295 0.040084 0.030443 -0.0051701 -0.05127 -0.041297 -0.038206 0.00072461 0.032783 -0.0056337 -0.0033197 -0.021447 -0.046136 0.0078514 -0.062092 -0.033085 -0.02036 -0.033457 -0.054398 -0.0019084 0.0095825 0.075856 -0.0017765 -0.044158 0.034866 -0.0073371 -0.0073222 
Anastasiak899 -0.0025582 0.00092863 0.043939 0.0057343 0.0096809 -0.0035919 -0.017817 0.033713 -0.030205 -0.039197 0.026375 0.006726 -0.02753 -0.01432 -0.013496 -0.023934 0.00040149 -0.0015968 -0.034548 0.011994 0.028448 -0.01157 -0.025892 0.0035316 0.0090631 0.00304 0.021745 -0.014537 0.065861 -0.019031 0.0017063 -0.0068262 -0.0058563 -0.00086677 0.0096608 -0.0056764 0.0035667 -0.0017059 0.0073468 0.017558 -0.0011968 -0.0027267 0.024032 -0.0040065 -0.018985 -0.0109 -0.07453 0.036147 -0.0023939 0.0059074 0.0050955 0.0088436 -0.010736 -0.0015333 0.0085547 0.031154 -0.0086764 -0.0093219 -0.019955 0.016037 -0.0025432 -0.013607 -0.026424 -0.0051295 -0.0055133 -0.0094938 0.012839 0.019107 0.0080143 -0.072244 0.0059497 0.021452 0.0016144 0.0054235 0.0021649 0.00034812 0.019752 -0.0034999 0.0048191 0.0089383 0.0025757 -0.0084602 -0.0075253 0.0077243 0.013089 -0.01693 0.013923 -0.014149 0.060005 0.0028528 -0.0031 0.001457 -0.0036431 0.029695 0.032125 -0.0048314 -0.0054946 -0.0035279 -0.014758 0.0055913 0.012417 0.0094139 -0.025088 0.023469 -0.0060829 -0.020549 0.025078 -0.016857 -0.0056334 0.012081 -0.0073603 -0.0022554 0.019727 -0.0034032 -0.033592 0.007988 0.022309 -0.013067 0.023032 0.032528 -0.0098887 -0.024794 -0.019576 -0.0033919 0.0007576 0.019783 -0.016748 0.025025 0.020157 0.0020901 0.019993 0.007236 -0.0064605 -0.038736 -0.027573 0.010033 0.025995 -0.015164 0.025248 0.02017 -0.010323 0.014151 0.0179 -0.02813 -0.019025 -0.017386 -0.016255 -0.033557 -0.010991 -0.0041266 -0.0083808 0.0057272 -0.0055757 -0.017388 0.010221 0.024261 0.004219 -0.008957 0.0020743 0.0016139 -0.005366 0.010229 -0.017937 0.0017078 -0.013167 0.029215 -0.034116 -0.0069125 -0.0081407 0.0071508 0.019519 -0.055922 -0.0096901 -0.0060065 0.00064971 0.011677 -0.015418 -0.0012626 -0.00025407 0.0024559 0.030837 0.047762 0.012619 -0.0023706 0.024686 -0.025386 -0.0050787 0.012793 -0.00021193 -0.013208 0.0094592 0.00046558 0.011466 0.050497 -0.0013602 0.018359 0.0044203 -0.00085767 0.031713 0.08526 0.046166 -0.017704 0.0057588 0.0094378 0.0024998 0.056618 -0.024836 -0.00088724 0.010193 -0.0051258 0.065039 -0.0063847 0.013163 -0.012717 0.024862 0.0050021 0.0040948 -0.016193 0.017754 -0.0022753 -0.0011549 -0.033702 0.041899 -0.0034658 -0.018508 0.0099599 0.00077555 0.009312 0.031972 -0.0010928 -0.00082049 -0.008412 0.017592 -0.021662 0.019996 -0.0056985 0.001985 -0.018979 -0.02029 -0.0045063 -0.0039224 0.0093981 0.0063567 -0.012878 -0.044842 -0.002513 -0.0064953 0.0013124 0.0049901 -0.049303 0.021054 -0.0032294 0.040398 0.020409 0.004788 0.023065 -0.032472 0.012547 0.0052778 -0.02219 -0.014307 -0.048587 -0.01992 0.003706 -0.0061413 0.0026068 0.027583 0.0042835 -0.0080648 0.041746 0.0071176 -0.024077 0.019161 -0.020246 0.0030534 -0.0063971 -0.021657 -0.018302 -0.0011781 -0.010482 -0.0024892 0.0056202 0.021035 -0.020745 -0.0024568 0.0057244 -0.01092 0.0019855 0.021932 -0.047011 0.020061 -0.0074888 -0.029815 -0.011714 0.0047123 -0.0090372 -0.030327 0.013124 0.0025819 0.0027467 
Anatomy -0.0064635 0.13483 -0.0032318 0.039377 0.047486 -0.052005 0.031735 0.067058 -0.10578 0.085799 -0.042823 0.013801 0.00093845 -0.056756 0.010807 0.071491 -0.04983 0.14531 0.065012 0.13077 -0.012215 0.0097165 -0.058237 -0.10229 0.043694 0.015596 -0.071381 0.0039398 0.10242 -0.084787 -0.032416 0.080575 0.067053 0.036845 -0.015741 0.018797 -0.014131 0.016978 0.044143 0.058206 0.12036 -0.16031 -0.07022 0.068611 -0.077235 0.10027 0.028528 -0.049396 -0.10325 0.077388 -0.01137 -0.010267 0.062012 -0.069358 -0.099493 0.1038 -0.041999 -0.026117 -0.051633 -0.00035785 -0.024776 -0.052301 0.014693 0.12443 0.016241 0.040449 0.047097 0.092122 -0.051919 0.040704 0.045708 -0.033367 0.076731 -0.022586 0.004864 -0.014762 0.0051307 -0.021755 0.044673 -0.040142 -0.014287 -0.013387 0.024709 0.038015 0.00064015 -0.03972 0.020928 -0.060206 -0.017831 -0.00091547 0.045041 -0.0017478 0.052004 -0.031921 0.03984 0.0030959 -0.018782 -0.044156 0.015014 -0.013113 0.031756 -0.056744 -0.0081204 0.03507 -0.00036383 -0.030226 0.050467 0.0101 0.031817 -0.03282 -0.013321 -0.11756 0.20347 -0.094748 0.0060784 0.065241 0.056871 -0.0080829 0.11489 0.054243 -0.076898 -0.033843 -0.15872 -0.019957 -0.074774 0.06018 -6.4254e-05 -0.048719 0.067605 0.040324 -0.022905 0.03152 0.10427 -0.057013 -0.16907 0.016281 0.0099649 -0.024833 -0.08159 -0.0044827 0.027916 0.11797 -0.00075723 0.026968 -0.031962 -0.017909 -0.00095589 0.13079 0.024829 0.029826 -0.040099 0.0025908 -0.040907 0.026844 -0.03193 0.061268 0.01265 0.030664 0.049062 0.090567 -0.022654 0.022621 0.029558 -0.12709 -0.00719 0.0095638 -0.012523 -0.062158 0.066283 0.010188 -0.053779 -0.0045201 -0.096907 -0.0078544 0.0077827 0.045995 0.020051 -0.064995 0.080048 0.04137 0.087597 0.016094 0.057921 0.006155 0.11793 -0.065734 -0.047441 -0.091515 0.015621 -0.11131 0.047338 -0.19106 -0.003067 -0.010649 -0.0039384 0.10859 -0.063143 -0.078039 0.0059187 0.010405 0.060936 -0.041484 0.06908 0.057589 -0.060877 -0.045789 -0.041068 -0.17097 -0.020489 0.061764 -0.037233 0.017096 0.044691 0.010706 0.028975 -0.11834 -0.083551 -0.061717 0.079512 0.01641 -0.0045213 -0.061805 0.025837 -0.104 0.090375 0.058208 0.010181 -0.10649 -0.15812 0.0033532 0.073852 -0.23851 0.0052994 0.064977 -0.019923 0.041657 -0.070921 -0.0193 -0.053549 0.027691 -0.080736 -0.03869 0.037578 -0.032092 0.051698 0.041454 0.081761 -0.012174 0.02506 -0.052267 0.10298 -0.048737 0.10621 0.077258 0.0559 0.082578 0.046692 0.16654 0.11201 -0.12155 0.12548 -0.15678 0.020181 0.074495 -0.014842 -0.032878 -0.047815 -0.030165 0.075341 -0.011995 0.031802 -0.049912 0.070073 0.017493 0.0070256 -0.013803 -0.068019 -0.048046 -0.042366 0.071002 -0.084852 0.022774 0.0050296 -7.3465e-05 0.09253 -0.069634 -0.0017451 0.075078 0.054756 -0.093973 -0.066067 -0.10141 -0.054598 -0.0017878 -0.020246 0.0052048 -0.060597 -0.055725 -0.020795 -0.046973 
Anaya -0.0046581 0.053059 0.076667 -0.034786 -0.17917 0.035428 0.054022 0.0092574 -0.032417 -0.016222 -0.090353 -0.059599 -0.023778 0.086948 -0.019935 0.12344 0.00082341 -0.04899 -0.05885 0.14712 -0.001869 -0.0094518 0.038871 -0.0028381 -0.062181 -0.018329 0.011724 -0.047303 0.013785 -0.0062943 -0.03177 0.12616 0.14686 0.098171 0.021106 0.0041594 0.056475 0.021134 0.026053 -0.023842 0.22312 -0.10527 -0.074385 0.13804 -0.057514 0.012955 -0.052401 -0.026987 -0.012056 0.16176 -0.016432 0.031056 0.037391 -0.023383 0.031577 0.029191 0.044074 -0.076524 -0.01017 -0.038988 0.028477 -0.068765 0.050138 0.050574 -0.060752 -0.10117 0.0074891 0.16709 -0.11133 0.014285 0.039599 -0.15869 -0.019252 0.052901 0.020827 0.026786 0.17763 0.089863 0.05591 -0.087623 0.10014 -0.022528 -0.012907 0.0023518 0.021285 0.035094 0.0097215 0.075194 0.072187 -0.041989 -0.10417 0.029827 0.032908 -0.01509 -0.062564 0.037775 -0.13896 -0.08167 0.032598 -0.011576 0.10038 -0.063586 -0.024409 -0.023971 -0.026653 -0.01742 0.046283 -0.052164 0.021243 0.1446 0.064021 0.038911 0.052275 0.011807 0.1016 -0.10004 0.08714 -0.1023 0.096707 0.1279 -0.0015098 0.12288 -0.076857 -0.070485 -0.016924 0.09033 -0.0048751 0.0185 -0.013305 0.12703 -0.0094996 0.054338 -0.060796 -0.15626 -0.046472 -0.062951 -0.13588 -0.12061 0.0005082 -0.0019565 -0.052875 -0.098874 -0.090204 -0.051552 -0.086577 -0.068514 0.082042 0.02342 0.0018086 -0.0087606 -0.023474 0.077338 0.017039 -0.063518 0.011125 0.037839 0.0074216 0.0058253 -0.10699 -0.03405 -0.0050544 -0.005608 0.040744 0.011506 -0.11651 -0.043335 0.018362 -0.028566 0.066134 0.12926 0.01798 -0.084789 0.019075 -0.047077 0.089259 0.04389 -0.034505 -0.02286 0.014203 -0.025977 0.13404 0.0017571 0.027113 0.067866 0.005169 -0.11329 -0.10102 -0.0086418 0.12407 -0.13962 -0.006253 0.060465 -0.0064411 0.074506 0.014883 0.10665 0.06835 -0.020548 -0.028563 0.14874 -0.056333 0.018261 -0.15312 -0.06886 0.0046695 0.060256 -0.010148 -0.18547 -0.050525 -0.061549 -0.063997 -0.07581 -0.019721 -0.076064 0.10274 -0.01786 -0.0025543 0.024597 0.018498 -0.019034 0.00021376 0.14905 -0.069606 0.017488 -0.1226 -0.055373 -0.076974 -0.002548 -0.086901 0.025648 0.095845 0.12582 0.069986 0.035142 -0.013932 -0.039445 -0.0064121 0.00075913 0.067314 -0.10718 -0.0048971 0.043127 -0.14035 -0.056595 -0.020167 -0.11357 0.094013 -0.041394 0.0017103 -0.10305 0.036238 0.063399 0.05995 0.014158 -0.016287 0.0005272 -0.044633 -0.012807 0.036846 -0.09173 -0.063872 -0.021198 0.07679 0.0054184 0.030617 -0.055082 -0.15861 -0.048486 0.028089 0.01594 -0.10956 -0.001028 -0.0098881 -0.016363 0.13198 0.11473 0.0035973 0.010451 0.079199 0.042591 0.087889 0.041285 0.072487 -0.1418 -0.05558 0.0003651 -0.12709 0.053661 -0.048803 0.038268 0.033961 0.010473 -0.05606 -0.11448 -0.034521 0.0029609 -0.048222 0.039775 0.0056252 -0.033718 
Ancelotti 0.053026 -0.035925 0.074537 0.01937 0.11756 -0.031005 0.01879 -0.00076651 0.017729 -0.040713 0.041618 0.0236 -0.063845 -0.011702 -0.12092 -0.039806 -0.028856 -0.039361 0.092036 0.032583 -0.05922 -0.0046544 0.01119 -0.038313 -0.055454 -0.13362 -0.025693 -0.011309 -0.014161 0.044391 -0.030653 -0.048857 0.078 0.0018257 0.019389 0.0037687 -0.024918 -0.036978 -0.013497 -0.034613 0.043105 -0.023953 -0.062203 0.0091103 -0.020397 -0.035038 -0.0028053 0.015544 0.068996 0.034215 -0.02931 -0.0091146 -0.0010324 0.075116 0.013234 -0.0051802 -0.041431 0.0166 -0.020319 0.035473 0.078809 0.080502 -0.024271 0.082432 -0.013104 0.029689 -0.054332 0.06244 0.024173 0.0070817 -0.011774 -0.030112 0.087694 -0.01402 -0.087803 0.076455 -0.0067162 -0.012226 0.013922 0.031383 0.036816 0.15583 -0.022919 0.042188 0.06575 -0.0052105 -0.018545 -0.0063263 0.012482 0.042768 -0.08432 0.051224 -0.057879 -0.018326 0.039675 -0.02511 0.029461 0.03346 0.016728 -0.020377 0.013198 0.071281 0.0055924 0.0044851 -0.044379 -0.044877 0.01679 0.06616 0.0045926 0.034419 -0.020523 0.039235 0.095632 -0.075235 0.047038 -0.0013831 0.014865 -0.0011377 0.064887 -0.028174 -0.041428 -0.059351 -0.018561 0.029508 -0.0224 0.033752 -0.048789 0.0029201 -0.009904 0.013805 0.06766 0.018409 -0.0063976 -0.032575 -0.027193 0.0046141 -0.040766 -0.0037309 -0.014361 0.011329 -0.11962 -0.027467 0.022665 0.016577 -0.033736 -0.023692 0.084039 -0.028054 -0.0082734 0.048183 -0.057589 -0.058386 -0.039629 0.00024246 -0.012018 0.022314 0.029606 -0.033807 -0.0056005 0.044899 -0.022145 -0.033482 -0.0057279 -0.06253 0.09349 0.080958 0.0051398 0.0011662 -0.10716 -0.023796 0.016355 -0.0035219 -0.049254 0.016088 -0.032037 0.0074319 0.03881 0.046049 0.026558 -0.11031 0.029836 -0.06836 0.022156 -0.0094577 0.055984 0.029306 -0.028218 -0.06027 -0.029894 -0.018076 -0.05333 -0.011402 0.053138 0.036065 0.037997 0.029986 0.087142 0.12493 0.0025625 0.040509 0.030018 -0.031088 -0.011216 0.057235 -0.0092645 0.052355 -0.00037993 -0.12699 -0.028457 -0.066156 0.039713 -0.039998 0.0029098 -0.0026014 -0.048709 0.035848 -0.036074 -0.030612 0.039263 -0.023106 -0.077502 -0.11042 0.013487 -0.055411 0.042638 -0.042517 -0.092283 -0.038669 0.002366 -0.0037348 0.067039 0.053462 -0.033726 0.02116 0.009746 -0.031387 -0.085267 0.056737 0.013298 -0.032431 -0.073732 0.03999 -0.04947 0.015905 -0.015152 0.07973 0.029755 0.029272 0.0045664 -0.070824 0.010521 0.066272 0.017491 0.070598 0.10552 0.0063967 -0.0022233 0.037265 -0.027332 -0.070048 -0.083047 -0.067376 0.038475 -0.076871 -0.00068574 0.012086 -0.019728 -0.045013 -0.021842 0.022818 -0.070731 -0.027807 0.023129 -0.013281 -0.011783 -0.0055114 -0.046436 0.049026 0.040773 0.029655 0.017789 0.027852 -0.0088113 -0.073556 0.018807 0.013941 -0.069741 -0.067653 -0.0085791 -0.030656 -0.01707 -0.03969 -0.054601 0.040537 0.065092 0.097893 -0.030572 0.009247 0.033963 -0.015909 
And 0.041689 0.012 -0.019693 -0.017411 -0.071817 0.10284 -0.17631 0.16492 0.0044437 0.24822 -0.19415 0.1247 -0.086412 -0.089427 -0.0013911 -0.085055 -0.13917 0.013663 -0.16996 -0.14214 0.10236 0.098953 -0.040422 -0.22885 0.11492 0.12884 -0.14453 0.17897 0.53768 0.030597 0.026387 -0.033829 0.054239 -0.21711 0.11271 -0.063099 -0.08866 0.063657 -0.05312 -0.078868 0.50158 0.077518 -0.15516 0.097608 -0.21622 -0.063085 -0.47632 -0.092519 0.15363 0.16882 -0.1226 0.14787 0.10849 0.20843 0.031237 -0.082367 -0.12317 0.047811 0.2269 0.19122 0.0043803 -0.072051 0.045152 -0.067974 0.13552 -0.041601 0.057489 0.15089 -0.12551 0.17433 0.15968 -0.18241 0.17655 0.11983 0.014491 0.0062831 -0.15719 -0.092185 0.00043149 0.075913 0.28839 -0.0042751 0.026847 0.12742 -0.10024 -0.071693 -0.00024024 -0.093869 0.31004 -0.04872 -0.11652 0.17375 -0.078442 -0.046482 0.044953 0.2707 -0.035513 -0.077373 -0.23273 0.097379 -0.034974 0.011857 0.034994 -0.065245 0.15526 0.23131 -0.14526 0.21049 -0.055285 -0.0094672 0.207 0.034447 0.019526 0.054873 -0.080962 0.031823 0.048184 -0.16136 0.32414 0.2681 0.00094125 -0.033993 -0.23119 -0.18034 0.019867 0.029653 -0.0027792 0.0067068 0.091453 -0.032799 -0.17601 0.012691 -0.071867 -0.35612 0.12959 -0.25879 -0.054334 -0.044465 -0.11795 -0.20171 -0.10535 0.48815 -0.028924 -0.064914 -0.24374 -0.021342 0.15744 -0.22907 0.060805 -0.030266 0.10641 -0.11708 0.045652 -0.07388 0.28507 -0.072872 -0.14436 0.1461 0.063175 0.10555 -0.1211 -0.060657 0.18998 -0.046852 0.099971 0.12399 -0.098758 -0.074231 -0.028685 0.053856 -0.056671 -0.040858 0.01863 -0.021118 -0.018645 0.070194 -0.027644 0.15531 0.22908 0.16797 0.21373 -0.028191 0.45313 0.017868 -0.03087 -0.0888 -0.0014947 0.13906 -0.28776 -0.0014345 -0.018665 -0.074535 -0.13328 -0.062873 0.0084581 0.30727 -0.051449 -0.080499 0.1771 0.38117 0.10433 -0.0088733 0.026057 -0.050784 0.068354 -0.17928 0.067468 -0.59893 0.079839 -0.012938 -0.15605 -0.028563 0.0075366 0.0057393 -0.013487 -0.073968 0.098297 -0.068911 -0.056903 0.078873 0.068355 0.019977 -0.092183 0.10569 0.11819 -0.049494 -0.057242 -0.01716 -0.049742 0.050523 0.058944 -0.21417 -0.035084 -0.088364 -0.076147 0.011536 -0.01416 -0.049735 0.19674 0.22238 -0.041892 -0.058468 -0.023713 0.1136 -0.16147 -0.1088 0.15275 -0.17966 0.16932 -0.15289 0.10681 -0.24192 0.39254 -0.1073 0.07491 0.21226 -0.095259 0.043061 0.099737 0.038988 0.06231 -0.039839 -0.10884 0.1525 0.062955 0.1911 -0.033793 0.15954 -0.1314 -0.03608 -0.039641 -0.08391 -0.056023 0.15939 0.0022957 -0.21499 0.11249 -0.21104 -0.049242 -0.031062 0.018808 -0.0058855 -0.053747 -0.20778 0.0038219 0.018321 -0.088216 0.061539 0.27762 -0.064288 -0.090169 -0.066633 0.11358 0.15677 0.17964 0.077494 -0.018054 0.098403 0.13836 0.10141 
Anda 0.11172 -0.026642 0.029281 -0.085438 -0.043597 0.078526 -0.064398 0.068636 -0.00022517 -0.045424 -0.055642 0.033233 -0.087418 -0.053749 -0.073395 0.091118 0.0018592 0.0050479 0.098886 0.081182 -0.082207 -0.07532 0.10532 -0.029199 -0.0013541 0.061539 -0.070236 0.10888 0.00032614 0.013766 -0.0036153 0.10722 -0.026487 -0.043372 0.086426 0.049498 0.08072 0.01384 -0.1221 0.05167 0.06086 -0.13117 -0.07198 -0.022441 -0.071748 -0.017696 -0.093701 -0.040024 -0.094663 -0.033324 0.055161 0.021037 0.084277 0.023844 0.0065896 0.09208 -0.0024343 -0.069059 0.14412 0.034933 0.075852 -0.0026175 -0.077422 -0.032054 -0.080025 -0.17389 -0.026615 0.1116 -0.016643 0.11258 0.12803 -0.054334 0.052545 0.0030233 0.064186 0.035577 0.0047347 0.027581 -0.041767 0.052185 0.026219 -0.080921 0.11203 0.023391 0.08218 0.10261 0.064042 0.044623 0.10293 -0.12037 -0.058586 -0.0023794 -0.25259 -0.064538 0.011492 0.0027248 0.059624 -0.036548 0.055629 0.047603 0.076167 0.076843 -0.018715 0.065157 -0.069023 0.056623 0.090558 0.033903 -0.01743 -0.021781 -0.0045414 -0.041958 0.05181 0.21571 0.014971 -0.002089 -0.091431 -0.012745 0.11865 0.016349 0.093098 -0.065178 -0.081958 -0.075361 0.034973 -0.038935 -0.03763 -0.064163 -0.07305 0.045399 0.051547 0.050967 -0.010461 -0.11321 0.11519 0.040249 -0.051366 0.0243 0.17404 -0.022949 0.091147 -0.058291 -0.050334 -0.061429 -0.10733 -0.058019 0.027273 0.0055038 0.039195 -0.0079083 0.055388 -0.082668 0.056006 -0.052271 0.15835 -0.0024822 0.047403 0.096869 -0.076971 -0.04815 0.024751 -0.059211 -0.034989 0.058282 0.0092881 -0.034421 -0.11114 -0.15977 0.058812 0.095284 -0.099447 -0.0077081 0.053963 0.0025542 0.006908 0.085005 -0.037526 -0.13955 0.017536 -0.0054483 -0.011463 -0.017488 0.025362 0.023298 0.033887 0.068304 -0.11856 0.063825 -0.038226 -0.0029549 -0.019069 0.043821 0.057893 0.073857 -0.05152 0.08677 -0.061506 -0.090412 -0.030039 0.11698 -0.078844 0.025764 -0.039357 -0.057081 0.079218 0.24066 0.044937 -0.1869 -0.036371 -0.19016 -0.063101 0.015598 -0.063479 0.05385 -0.025832 0.067112 -0.18947 -0.0080769 -0.085279 -0.070552 -0.13771 0.097175 -0.045036 0.092966 -0.15501 -0.011147 0.031636 -0.078023 0.003224 -0.015402 0.16002 0.044274 -0.096004 -0.025834 -0.02603 0.035798 -0.18968 -0.050674 0.017763 0.11859 0.030678 0.064146 0.10098 0.066478 -0.22611 0.00068257 -0.019536 0.025929 0.17959 -0.13018 0.045756 -0.021353 0.10657 0.010291 -0.099201 -0.0021227 0.014858 0.057317 0.048522 -0.011978 -0.036548 0.084897 -0.11953 -0.025206 -0.00078529 -0.044728 0.0056335 -0.074487 0.014641 -0.019532 -0.02565 -0.033972 -0.058754 -0.11016 0.16307 0.002144 0.040237 0.091409 -0.053566 0.058319 0.082634 0.039241 -0.13958 -0.047109 -0.08186 0.019544 0.017365 -0.01421 0.013007 -0.0081037 0.062653 0.079772 -0.06462 0.043509 0.001314 -0.07249 -0.022886 0.050734 0.169 -0.018326 
Andaba -0.0058939 -0.090626 0.018189 0.0094206 0.072064 -0.02794 0.029892 0.14196 0.0034225 -0.012102 -0.051954 0.029457 0.03573 -0.072202 0.055182 0.07784 0.023629 0.0049091 -0.0039406 0.015564 0.086659 -0.069244 0.048206 0.03694 0.0020703 -0.05103 -0.08158 0.10087 -0.051384 -0.039246 0.054188 0.045066 -0.013728 -0.012176 -0.0034106 0.04374 -0.039542 0.0087632 -0.10623 -0.0044071 -0.020606 -0.0070164 -0.048558 -0.076202 -0.078128 -0.031409 -0.069608 -0.0062271 0.041235 0.048581 0.038158 0.15035 0.018245 -0.06725 0.022256 0.010798 -0.041082 -0.068243 0.0057817 -0.031555 -0.0077945 -0.010736 -0.03031 -0.0026151 -0.033548 -0.051388 -0.0056756 0.024197 -0.059778 0.0029654 0.0042783 0.0022415 -0.00087415 -0.053407 0.0060384 0.0082444 0.087463 -0.046369 0.0010436 0.044762 0.01979 0.13736 -0.0065833 0.037727 0.036451 0.087514 0.010056 0.048016 0.11915 -0.099257 0.036906 0.037197 -0.10259 0.10507 0.011373 -0.056066 0.083344 -0.030629 0.11197 0.054747 -0.014603 0.0012519 0.035665 0.012049 0.065864 0.086569 -0.023624 0.062963 0.018628 -0.033906 -0.023851 -0.023588 -0.0040914 0.0053386 -0.0079384 -0.06471 -0.00075641 -0.04638 0.0050663 -0.0057308 -0.027147 -0.028762 0.0055623 -0.06005 0.059544 0.036616 -0.021216 -0.0081336 -0.16387 0.037327 -0.020206 -0.019872 0.10388 -0.045508 -0.030393 0.076543 -0.05533 0.018204 0.080542 0.0051962 -0.039332 -0.031986 -0.0078641 0.012019 -0.080687 -0.011601 0.017679 0.029371 -0.02631 -0.033521 0.048277 0.029738 0.040787 -0.049707 0.12953 -0.046911 -0.0006688 0.026409 0.043563 0.0098625 -0.009293 -0.034444 -0.019465 0.069777 0.027309 -0.065689 -0.02104 -0.11059 0.063334 0.038742 -0.022906 -0.087611 0.051677 -0.06007 0.03621 0.06064 -0.031592 -0.063081 0.0083133 -0.089912 -0.028789 0.058977 -0.080644 0.10286 -0.0087258 0.077906 0.011451 -0.027082 -0.087904 0.005787 -0.037005 0.03136 0.065322 0.093121 0.058642 0.090712 0.038938 -0.10087 -0.011089 0.019215 -0.092171 -0.048984 0.022297 -0.01858 0.024287 0.1222 -0.016112 -0.16259 0.047437 0.053731 -0.08197 -0.019082 -0.0019304 -0.087368 0.015464 0.025177 -0.0551 -0.043656 -0.0011867 0.090662 -0.021394 0.021296 -0.054032 -0.038181 -0.030345 -0.022929 -0.0014178 -0.0069986 0.014913 -0.032775 -0.010058 0.028118 -0.11215 -0.04453 -0.030285 0.031394 -0.063042 0.06061 -0.018788 0.082702 -0.042906 0.10841 0.021292 0.035334 -0.09893 -0.078223 0.016714 0.039837 0.0995 0.030189 0.0067091 -0.006933 0.13846 0.094087 0.065423 -0.010922 0.0077198 -0.042518 0.042812 0.11058 0.084821 0.070527 -0.079595 0.11172 0.014266 0.026693 -0.070422 -0.085237 0.033621 0.0068888 -0.057605 0.018237 -0.026933 -0.089094 0.00073525 0.027862 0.025261 0.01428 0.0025001 -0.12341 0.055936 -0.035799 -0.045823 0.023046 0.028123 0.067561 0.063056 -0.025215 0.091623 0.076385 0.058608 -0.029766 -0.047345 -0.011861 -0.1078 0.038319 0.033167 0.044184 0.039699 -0.016114 
